129 128
ACTGACGA -0.0012735971 -0.27968934 0.22888628 0.22530656 0.13780789 0.10038619 -0.09410474 0.0633361 -0.1907531 -0.06367949 -0.048805103 -0.18949321 -0.16877994 -0.1196995 0.4599524 0.12593788 0.26877427 0.18843067 0.06189116 0.060211748 -0.14680022 0.39481205 0.0060330257 -0.2806785 -0.017048478 -0.35662028 -0.07587448 0.08922536 -0.103851475 0.1938998 -0.051787313 -0.032607287 -0.08129442 0.15052836 -0.07697909 -0.014518592 0.094669916 -0.34716678 -0.084422074 0.072236575 -0.11553173 -0.13371329 0.18039355 -0.0038204794 -0.018411994 0.04190219 -0.12093478 -0.03809215 -0.13691726 0.04448557 0.2472983 -0.10539402 -0.010541384 0.00091857754 -0.21984066 -0.06297883 0.09636481 -0.0027901763 0.0036405718 0.26849523 0.09594367 -0.15072906 0.020931715 -0.24124959 -0.099655196 0.10958986 -0.15928681 0.09657025 -0.035441548 -0.14332396 -0.04228636 -0.1742803 -0.39637253 -0.2912205 0.18600991 -0.4175163 -0.23162203 0.0015703972 -0.1331846 -0.07450407 -0.012414714 0.055361077 0.1931816 0.22444801 0.23653138 0.18606193 0.21099101 0.016485712 -0.05681252 0.06547534 -0.085629 -0.13225913 0.044041406 0.04739566 0.26664138 -0.07012164 0.24843201 -0.050236546 -0.30662566 -0.18467243 0.06457364 0.06763378 -0.22338635 -0.034663223 0.17290905 -0.12441244 -0.030551119 0.116603635 0.29521966 -0.28694686 0.098146126 -0.069463074 0.18515539 0.082699075 -0.25333044 -0.11247476 0.2014307 0.11669603 -0.07911748 -0.28469157 -0.14275879 0.067506574 -0.04525534 0.45389372 -0.15548038 0.16491304 -0.13199729 0.11780105
CTGACGAC -0.056299504 -0.35601684 0.21315254 0.28921828 0.062391125 0.11877131 -0.09198684 -0.026920626 -0.123629645 -0.10701605 -0.036746442 -0.006054866 -0.14340168 0.007877574 0.35560438 0.22089888 0.22165667 0.10992252 0.08030636 -0.009027374 -0.016202915 0.32844734 -0.09677613 -0.24918063 -0.057191495 -0.22093442 -0.004287845 0.16053064 -0.10379891 0.106233895 -0.03808732 -0.10213767 -0.10527231 0.15824263 -0.06415077 0.0011843187 0.085595116 -0.41948316 0.06723623 0.10694123 -0.056815967 -0.12415791 0.071946256 -0.027411334 0.033884723 0.15463339 -0.0676393 -0.027065258 -0.20883104 0.025227483 0.114098035 -0.08438116 0.1465999 -0.05865007 -0.17853127 -0.11095913 0.24462484 0.024068026 0.07972223 0.2738274 0.07901547 -0.16174425 0.011130365 -0.2989222 -0.08273271 0.07300261 -0.16224721 0.06345303 -0.017931122 0.033034142 -0.010743819 -0.20197843 -0.3569105 -0.3322803 0.21491201 -0.37765887 -0.26693675 -0.053378757 -0.22180453 -0.08631085 0.032161985 -0.00816176 0.17501137 0.2086295 0.20528996 0.14676186 0.12485174 -0.061651304 -0.081807286 0.0882622 0.02269305 -0.17271769 0.11643177 -0.059524186 0.23140115 -0.027854277 0.21727593 0.018977474 -0.35293058 -0.20142643 0.034202423 0.06687668 -0.16531354 -0.16117154 0.13399832 -0.04862598 -0.024731033 0.12679912 0.19987397 -0.27336 0.11358071 -0.06067544 0.18414189 0.069790326 -0.18164197 -0.031228209 0.13984466 0.07839481 -0.16682526 -0.3191003 -0.20083255 0.032358695 0.008221818 0.49630213 -0.22889765 0.1504477 -0.100236624 0.17536919
TGACGACT -0.14682236 -0.3693985 0.12451984 0.25855893 0.043069497 0.11795009 -0.087707214 -0.004869381 -0.034817073 -0.03764904 -0.05541018 -0.121180214 -0.29142615 -0.0072581233 0.4704355 0.17595786 0.19551522 0.0756275 0.123736046 0.0020637724 0.00454382 0.45298442 -0.12877837 -0.3435356 -0.09067552 -0.18671893 0.008225981 0.2307534 -0.14206794 0.14503519 -0.07631075 -0.15024242 -0.05848034 0.10701893 -0.105350815 -0.028157702 0.00676326 -0.35540795 0.049174733 0.0326681 -0.076196395 -0.15162931 0.14402682 0.052942537 -0.09050628 0.042787034 -0.08293934 0.024663605 -0.09155392 -0.00043457258 0.13510215 -0.049157996 0.07598892 0.016825462 -0.15297304 -0.0027887605 0.17484783 0.029421624 -0.047438413 0.22280431 0.044478808 -0.11127043 0.07791933 -0.25896892 -0.15135154 0.12398724 -0.12018132 0.11598029 -0.03619405 -0.14042173 0.00073562097 -0.266306 -0.30786866 -0.1724883 0.15236878 -0.40849018 -0.19110279 -0.020292446 -0.1277307 -0.04945078 -0.039723616 0.040516917 0.17636397 0.27950478 0.15845886 0.17681538 0.25614008 -0.025634548 -0.023424283 0.14401118 -0.03018197 -0.19582498 0.03532589 0.07890119 0.21704422 -0.043486502 0.25941083 0.04202608 -0.33343983 -0.166556 0.10214024 0.03955745 -0.18496752 -0.08612588 0.15492067 -0.09844898 -0.039969817 0.06094825 0.2592569 -0.32037845 0.16607986 -0.059322312 0.09295889 0.028087845 -0.26851922 -0.028218703 0.24857439 0.05899575 -0.17635715 -0.37056595 -0.16794343 0.14889929 0.05386688 0.41698018 -0.25507367 0.16333167 -0.1479846 0.18200262
GACGACTG -0.013635119 -0.29677942 0.19267228 0.24697419 0.1159367 0.13042414 -0.08747062 -0.0020859472 -0.1338346 -0.12828194 -0.03905292 -0.12160796 -0.2012596 -0.037941407 0.49085763 0.11771221 0.28914544 0.23092823 0.013189285 -0.056581754 -0.003307867 0.4380767 -0.048586138 -0.28261065 -0.058115203 -0.3013772 -0.023675878 0.13579202 -0.060456883 0.14544618 -0.087163 -0.10886589 -0.09829109 0.19458021 -0.10173539 0.01573138 0.11040535 -0.34607297 0.022730758 0.10962707 -0.056080963 -0.088672124 0.17354639 0.026627354 -0.10401576 0.0062288637 0.0067534866 0.05930537 -0.22729674 -0.069975376 0.13918687 -0.04811092 0.09688479 -0.102059774 -0.19921522 -0.05126683 0.17619278 0.06576184 0.06130456 0.21855606 -0.014433086 -0.13191877 0.044586975 -0.265009 -0.17392458 0.14885393 -0.15972464 0.08221259 0.019815296 -0.085918784 -0.034008775 -0.26874074 -0.382267 -0.19331768 0.19946274 -0.36605668 -0.12721026 -0.031192854 -0.18268071 -0.09524105 0.05152513 0.032050442 0.18587352 0.2992136 0.18806598 0.1716148 0.23246789 -0.031384233 -0.03964317 0.055271268 0.014935803 -0.3182604 0.082889624 0.037985872 0.2648673 -0.08314534 0.2554443 0.013682393 -0.34940186 -0.13088498 0.020280076 0.017078836 -0.11334933 -0.05461616 0.13123445 -0.14339904 -0.040731013 0.1079317 0.21061628 -0.24163829 0.12022188 -0.10809169 0.104613565 0.13255766 -0.25882265 -0.014614792 0.14404587 0.021123385 -0.23138312 -0.35891947 -0.17780404 0.04975141 -0.005588623 0.35936904 -0.16360119 0.19011699 -0.073209256 0.061151735
ACGACTGA -0.11922416 -0.40952837 0.14870822 0.22139221 0.072036564 0.12211254 -0.1655979 0.020182298 -0.19146338 -0.07304401 -0.016459394 -0.04477671 -0.28790575 -0.022645332 0.40150833 0.11426722 0.20097463 0.124008074 0.060791902 0.00059839623 -0.012417144 0.3633248 -0.022828577 -0.3749642 -0.07387819 -0.18095207 0.014050494 0.19303432 -0.04544038 0.13162953 -0.12908247 -0.1108198 -0.10890314 0.21074481 -0.10417666 0.0030629826 0.031270403 -0.29496822 0.059361607 0.049104143 -0.022613738 -0.20341639 0.15257324 0.035211064 -0.021395843 0.10297089 -0.09836347 -0.014620817 -0.16716632 0.030803591 0.13896884 -0.10444781 0.13502789 0.04723948 -0.15399998 -0.05319503 0.184814 0.015962025 0.0029532048 0.26648876 0.036296833 -0.059450313 0.10404869 -0.17270222 -0.20607208 0.1876458 -0.17738655 0.056612093 -0.023933195 -0.11986228 -0.021651529 -0.16807492 -0.41433513 -0.30016205 0.21247669 -0.4110513 -0.2093729 -0.06618147 -0.17805839 -0.11537484 -0.018942066 0.10042626 0.14661182 0.24679615 0.14180587 0.176721 0.20018254 0.017697187 0.0032247985 0.024546469 -0.07600633 -0.20266007 0.07913188 0.04662109 0.18507415 -0.04426831 0.32640713 0.04787474 -0.2918806 -0.22403356 0.06285251 0.014738335 -0.14652468 -0.0936245 0.12697095 -0.07509398 -0.027903197 0.12542568 0.24899714 -0.248867 0.12427905 -0.037140314 0.11973626 0.077838056 -0.24622485 -0.116840035 0.2175937 0.029389836 -0.13540687 -0.26492724 -0.12662016 0.10957901 0.016597485 0.41411766 -0.22307657 0.13863595 -0.16991755 0.12166314
CGACTGAC -0.06721938 -0.35328537 0.26478598 0.2410864 0.12388681 0.24251685 -0.17698316 -0.008548985 -0.23008776 -0.112395145 -0.068656564 -0.1001247 -0.25948757 -0.03224862 0.4640696 0.16070023 0.24761745 0.16416375 0.03489944 -0.024485733 -0.017257504 0.4018818 -0.00035780604 -0.32195947 -0.0136922095 -0.2918104 -0.021229915 0.2392368 -0.08035029 0.14955597 -0.10925743 -0.05454881 -0.09262214 0.08422943 -0.12786466 -0.039401703 -0.016382031 -0.25992575 0.02072657 0.06265433 -0.04774676 -0.2905551 0.15711495 0.0056115948 -0.12618867 0.04968447 0.038322113 -0.063105255 -0.21207292 0.0028549028 0.014297213 -0.091117226 0.07719034 -0.060731307 -0.12553759 -0.07266216 0.14938757 0.054751743 0.012908046 0.22412588 0.13500826 -0.093787596 0.045970675 -0.3040913 -0.18369484 0.11337505 -0.11310098 0.0980734 -0.06921167 -0.093038015 -0.013285413 -0.16416511 -0.359003 -0.29387704 0.17761019 -0.37760413 -0.13219863 -0.010125548 -0.21594615 -0.027564367 -0.031587046 0.070818044 0.14866741 0.24668768 0.20768915 0.21860847 0.24951741 -0.022940306 -0.026944218 0.109684415 -0.09029639 -0.315025 0.020011635 -0.0101402085 0.32426935 -0.050849874 0.32985017 0.060608514 -0.3333138 -0.17862761 0.12473061 0.03045767 -0.17719258 -0.105765216 0.09802684 -0.031394128 0.04488481 0.12376289 0.30042398 -0.24333511 0.076371044 -0.07557415 0.15845668 0.03166286 -0.25358194 -0.06083472 0.12453329 0.16874412 -0.15740114 -0.23929761 -0.17686434 0.14556153 -0.04334831 0.37041557 -0.21611048 0.17128858 -0.20303051 0.26976135
GACTGACG -0.12354992 -0.2974428 0.09905183 0.18997382 0.14731838 0.10571035 -0.10872742 -0.012349146 -0.13422397 -0.04404777 -0.006644431 -0.09311536 -0.2626594 0.010953529 0.4572502 0.11489682 0.18576658 0.18091303 0.04559794 0.14862916 -0.016844736 0.4098825 0.023963207 -0.3410725 -0.1991738 -0.25877512 -0.091222465 0.18743898 -0.11010943 0.16319557 -0.120946966 -0.08120053 -0.11821618 0.16140053 -0.106496945 0.044590153 0.10483701 -0.34430483 0.0823855 0.044645138 -0.07025319 -0.1574969 0.097146094 0.04036397 -0.08296273 0.07616153 -0.034211986 -0.043351963 -0.17924273 -0.024083724 0.1444324 -0.11060731 0.028516345 -0.10482264 -0.1480895 -0.047729 0.15191177 0.07769715 0.06714666 0.22692944 0.021941945 -0.03512259 0.010164561 -0.2922168 -0.120788395 0.21413195 -0.14157727 0.025741136 0.012147931 -0.10528923 0.05351104 -0.24837278 -0.38929275 -0.30756134 0.24002393 -0.39633948 -0.21090622 -0.045525383 -0.13086198 -0.012410924 0.016188908 0.019392548 0.19645564 0.19505832 0.16853078 0.18909222 0.18265498 -0.03260311 -0.08271447 0.100759596 0.00934751 -0.19154744 0.081352174 -0.0055625313 0.2965237 -0.11828954 0.25579172 0.010983102 -0.38279974 -0.2178388 0.10081472 -0.006319674 -0.1578088 -0.120315135 0.08756029 -0.09162401 -0.046759155 0.11932488 0.30893776 -0.2670114 0.15299089 -0.004445843 0.16992128 0.09888312 -0.3420832 -0.21696696 0.18100771 0.028034773 -0.12932558 -0.22108187 -0.13702485 0.03946535 0.017387692 0.49115983 -0.17845637 0.20329686 -0.21207286 0.24480748
AACTGACG 0.042707663 -0.24752747 0.13469957 0.41634604 0.31779152 0.2664678 -0.21076795 0.03997548 -0.17696485 0.026035339 -0.21630707 -0.029630747 0.057439376 0.028135752 0.6118222 0.27651528 -0.05516956 -0.041751403 0.005115286 0.11600751 -0.001877602 -0.050513856 -0.0145446025 -0.562747 0.0069270893 -0.23413166 -0.064707406 0.12616153 0.0804972 -0.14166087 0.20232749 0.056065768 -0.12034899 0.37076738 0.10352182 0.12685414 0.32522473 -0.329185 0.00072670775 0.16291364 0.08177797 -0.12311824 0.018413192 0.1433758 0.12753126 0.023620617 -0.2547832 -0.11216889 -0.012184801 -0.061684527 0.2982381 -0.014041132 -0.12160936 0.1786044 -0.07847891 0.063645445 0.13685279 -0.05142395 0.2004571 0.068103395 -0.00083552155 -0.00018003337 0.13859232 -0.29220903 -0.26455903 0.24590498 0.14423984 0.15464376 0.011117371 -0.021054922 -0.2727128 -0.43312377 -0.20306106 -0.29512054 0.2660395 -0.22832668 -0.044685703 0.04886647 -0.015054211 -0.30215013 -0.23321962 0.23717386 0.1635791 0.109537244 0.36075526 -0.05564185 0.19974086 0.0023345763 -0.1763414 0.2221628 -0.19519982 -0.10723017 0.16745818 -0.12898916 -0.14724809 -0.06880021 0.23265614 0.1490112 -0.3280091 -0.15397495 -0.037205465 -0.033216294 -0.04476849 -0.14225352 0.08820569 0.13123356 -0.1723046 -0.08912074 0.1320299 -0.43600544 -0.04438486 -0.069425076 0.0065003443 0.05722741 -0.072706774 -0.20018876 0.37904826 0.23293373 -0.015303605 -0.31057435 -0.26044324 -0.03167286 -0.112007216 0.21238582 -0.19369219 0.1878218 -0.24029352 0.28822666
TAACTGAC -0.2388092 -0.6008372 -0.09382433 0.22301292 0.3380044 0.33149108 -0.10718751 -0.06763422 -0.22664247 -0.025728753 0.04197752 -0.09573698 -0.04163628 -0.00945775 0.027803093 0.23111333 0.07015382 0.21686715 -0.05043765 0.05558635 -0.23037624 0.15770628 -0.052813645 -0.3472728 0.190015 -0.19452716 -0.07587691 0.12364094 0.017193716 0.16793793 0.03569901 -0.17248212 -0.0063489755 0.04085913 -0.008002493 0.08313268 -0.20318939 -0.39743352 -0.08116645 -0.083426856 0.028652728 -0.10128142 -0.07987666 -0.115058325 0.102141835 -0.055827342 -0.11415153 -0.034559134 -0.10179724 0.079555444 0.43928614 -0.05331934 0.11849262 -0.10375081 -0.23491685 0.16118543 0.13629262 -0.22397755 0.30446208 0.3700383 0.017404657 -0.0047117295 -0.024964001 -0.025523283 -0.43178958 0.15797691 -0.08329144 0.25954336 -0.08076144 0.1669291 0.07740682 -0.22408982 -0.2178279 -0.17737631 0.22097231 -0.3621886 0.028554175 0.32906103 0.0543201 0.17101957 -0.26891878 0.076106824 0.09267243 0.2645727 0.25257024 -0.0014556252 0.31567404 -0.09312528 0.04095207 0.22706042 -0.04604839 -0.2715317 0.08354669 -0.14379239 0.1636825 -0.40685162 0.20324016 -0.033575892 -0.5179866 -0.1040207 0.07840683 -0.057130802 -0.47614318 -0.16984208 0.4048315 0.24304523 -0.39283538 0.18474649 0.2623952 -0.14259118 0.26053995 -0.1740744 0.051454667 0.0636349 -0.30448797 -0.20492919 0.017418046 -0.068815574 -0.028518552 -0.1262286 -0.0672518 0.11370003 -0.020795785 0.34051242 -0.11471774 0.33345643 -0.3028844 0.046216633
TTAACTGA -0.20018515 -0.30038595 -0.022853648 0.17068055 -0.04731709 0.36328322 -0.027485123 -0.102455474 -0.36422274 -0.3266007 -0.089076996 -0.036538035 -0.26499516 -0.015679087 0.16461271 0.23838149 -0.10000838 0.16387719 0.21364368 -0.072590835 0.09408328 0.22671597 0.16126472 -0.37344602 0.105426416 -0.13215815 -0.15453129 0.09091106 -0.25736743 0.09829542 -0.05410248 -0.23979941 0.15410197 0.19798593 0.038525477 -0.09292448 0.2918728 -0.4164954 0.014709234 0.021184068 -0.0031865935 -0.12939595 0.34035462 0.034080043 0.06289533 -0.016296564 -0.27543834 0.11268444 -0.19625527 -0.22675632 0.3636671 -0.3712634 -0.08897513 0.15663779 -0.12019183 -0.0616279 0.055269327 -0.2808497 0.018669076 0.20569071 -0.17157848 -0.09369339 -0.030469606 -0.13270822 -0.23646681 0.018908205 -0.3236271 0.12104677 0.08733453 -0.101038314 -0.107979275 -0.05293867 -0.61762595 -0.19221266 0.08435153 -0.4289916 -0.16939585 0.18382606 -0.21457137 -0.057788383 -0.2078269 0.34379116 0.2045485 0.10121363 0.14777215 -0.14691979 0.16357313 0.0012814653 0.018843463 0.23125245 0.032845657 0.084749065 0.14673443 -0.142542 0.28255793 -0.15570493 0.20398837 0.28078282 -0.26221243 0.037735872 0.2134303 -0.0029595117 -0.2358015 -0.29421377 -0.09832721 0.1332404 -0.09267397 0.42705324 0.00981594 -0.27601168 0.09661021 -0.46984488 -0.076010294 0.2052926 -0.09916395 -0.04218297 0.28034917 -0.12931558 -0.053443678 -0.44074073 -0.000635435 -0.122961 -0.15091293 0.13498026 -0.05550715 0.10579486 -0.3246824 0.063977756
GTTAACTG -0.38575527 -0.20701534 0.16204074 0.37463108 0.07830536 0.27604038 -0.029741129 0.16748147 -0.38787067 -0.056254726 0.042258993 0.18522546 -0.22212388 -0.12665828 -0.05126884 0.07555641 0.18649319 0.14923976 0.30245453 0.08712508 -0.26512694 0.25261366 0.10262952 -0.54224586 0.06715093 -0.27273157 -0.030912511 0.24894024 -0.13928156 -0.08069416 0.066881455 -0.26933655 -0.04787715 0.19975768 0.14547999 0.24750307 0.21508265 -0.12766226 -0.12725538 0.09540724 0.23501022 -0.12113722 0.24303608 0.19202657 0.40922078 0.20000802 -0.25983924 0.01794333 -0.117459476 0.05728017 0.17621735 -0.14844249 0.060874086 -0.11792208 0.09487694 0.046946064 -0.20073733 0.043937538 0.28145894 0.090472475 -0.23319532 0.07055711 0.17936835 0.1062047 -0.17117819 -0.027667582 -0.16038805 0.045075163 -0.0071059726 0.044185292 0.11517298 -0.28753588 -0.118373364 -0.30766842 0.12770921 -0.022186488 0.033338625 -0.07658956 0.12310966 -0.03834184 0.016161544 0.15805304 0.36263222 0.2840354 0.18416525 -0.08730824 0.1413928 0.08479783 0.2662024 0.027183902 0.009602352 -0.17603123 0.17134035 0.19550711 0.21356641 0.016447634 0.19687073 0.05135548 -0.41490987 -0.20362996 -0.22018026 0.027424086 -0.23077956 -0.0719764 0.18865317 0.15985696 -0.12934665 0.23801981 0.09667742 -0.5167553 0.20866896 -0.38972035 0.15705875 -0.06861018 -0.343472 -0.0721281 0.3992761 -0.06568011 -0.037466202 -0.40652373 -0.1168326 0.18939188 -0.12164737 0.42032918 -0.2856298 0.2191933 0.02679244 0.2710917
GGTTAACT 0.03171959 -0.3953085 0.088167965 0.35804862 0.1585377 0.3131719 -0.35592464 0.26225293 -0.25229937 -0.10500469 -0.2662129 -0.05142598 -0.06725224 0.033911344 0.3395114 0.03603987 -0.20026332 0.22815403 0.11170722 -0.041735724 -0.0017542546 -0.058258 -0.0075433888 -0.29141754 -0.09055543 -0.28232142 -0.03180488 0.08200811 0.1523534 -0.32259727 0.15266271 -0.06654425 0.11531623 0.2597166 -0.03846037 0.03154646 -0.016910471 -0.19451231 -0.37426913 -0.07077315 -0.07205411 -0.2886159 0.21453404 0.11753943 0.27711087 -0.27204004 -0.12725975 0.02603545 0.057266213 -0.03865971 0.2466906 -0.15830722 -0.07287016 -0.06587452 -0.08570719 0.09524655 0.3795226 -0.06251909 0.09005975 0.07522269 -0.010093704 -0.013699825 0.028122596 -0.25342923 0.0064374637 0.17370194 -0.32474783 -0.09679961 -0.066503815 0.023104144 -0.0209168 0.028054195 -0.26873797 -0.14011942 0.25180742 -0.6679314 -0.24329624 0.09364678 0.18368988 0.12831911 -0.20125805 0.12057041 0.17652006 0.059787396 0.2524598 0.107665576 0.17034143 0.17517395 0.1472811 0.03981762 0.34711716 0.050823018 0.349854 -0.22405861 0.16613324 0.19444336 0.31222758 0.123253345 -0.50931257 0.077338494 0.05166074 0.18353347 -0.5886249 -0.14173108 0.05900928 0.04253728 -0.3984743 0.15067747 0.13316737 -0.33263698 0.107663445 -0.4754546 0.060884926 -0.037125457 -0.36360595 0.094485484 0.30990523 0.014234152 -0.045867585 -0.2842208 -0.11548325 0.008912716 0.0031842734 0.39949426 -0.41453663 0.3445236 -0.14611748 0.22103937
AGGTTAAC -0.2914116 -0.04949203 -0.17277698 0.4957218 0.20386446 0.26442277 -0.06372396 0.15932047 -0.26788136 0.098870434 -0.37402642 -0.0028821488 -0.30574077 -0.047260184 0.21323767 0.23228173 0.36403224 0.083620474 0.20365985 0.11577139 -0.13158819 0.24608882 0.05347989 -0.19454029 -0.060359497 -0.0335889 -0.123569824 0.2141904 0.026292287 -0.056803405 0.1000244 0.16063447 -0.0010439673 0.33965015 -0.13219593 -0.03595574 0.21384737 -0.18002091 -0.16433701 0.15009302 -0.08425385 -0.14617372 0.16545567 -0.26919094 0.16931581 0.23576888 -0.11868573 0.24177662 -0.3237513 0.021867935 0.24005403 -0.2636504 0.31579745 0.11728097 -0.03380229 0.09347454 0.20812961 -0.17098051 0.19951464 0.20118193 0.24364434 0.02339573 0.28090623 -0.03548793 -0.079293504 0.18334176 0.022842478 0.25677797 0.13897453 -0.06614277 -0.07811725 0.05641194 -0.15887947 -0.4324638 0.15606357 -0.16498482 -0.028688515 0.39832512 -0.2488695 -0.068306416 -0.22740093 0.19756249 0.20360631 -0.13189445 0.23421673 -0.056350153 0.25260714 0.22853048 0.22967832 -0.0938232 0.28555602 -0.41537362 0.19747813 -0.14381832 0.12295364 -0.30289158 0.3590827 0.030884337 -0.4194794 -0.06738913 -0.094316795 0.17392123 -0.37262303 -0.30022416 -0.047824882 0.058501087 -0.40649194 0.38680464 0.072918646 -0.3060417 0.070553586 -0.28025055 -0.008054695 0.12448961 -0.19636805 -0.18209122 0.29239255 0.063086875 0.01624125 -0.4170943 -0.12801231 -0.10007121 -0.17937373 0.2404386 -0.024696426 0.4860992 -0.080237485 0.0795907
TAGGTTAA -0.37696043 -0.2850595 -0.027261026 0.17360204 0.23261453 0.5602203 -0.013173223 0.012373913 -0.35031587 -0.10537458 0.03272725 0.36917636 -0.012064401 0.09760208 0.36274585 0.2900814 -0.21293218 -0.16086785 0.05545074 -0.20169175 -0.3801953 0.09616435 -0.11846219 -0.5652047 -0.05844376 -0.13162611 0.035289966 0.37391284 0.035123654 0.048806988 0.24704836 -0.062057644 0.04638904 0.25104034 -0.0369917 0.09249413 0.17772743 -0.30585462 -0.16522269 -0.015933855 0.13601077 -0.10405216 0.23331554 -0.2578365 0.30689633 0.15418784 -0.05637392 0.042800106 -0.05642327 -0.17345889 0.4119892 -0.05636646 -0.19410989 -0.2236941 0.052488342 -0.19315474 0.4082408 -0.27448115 0.31967345 -0.095791034 -0.021609409 -0.1117437 -0.05947498 -0.1242483 -0.09629281 0.39730585 -0.22476234 0.25320238 0.11932293 -0.18350087 0.0072683375 -0.08653328 -0.41949347 -0.21013948 0.4151115 -0.36473367 0.003573938 0.12274298 -0.102977425 0.05156741 -0.12587799 0.17552505 0.16461699 0.1312374 0.25651038 -0.15925612 0.38896292 -0.00041996854 0.22859386 -0.12071204 0.0627999 -0.2167637 0.3659044 0.042303573 -0.039029323 -0.15725489 0.28428584 0.032883544 -0.40422106 -0.14309531 -0.010694574 0.2983133 -0.10356718 -0.06757813 -0.121549256 0.011397048 -0.21168762 0.20976906 0.16031115 -0.05463722 0.26488215 -0.17319894 -0.16896823 0.23536551 -0.00726275 0.20288421 0.04706313 0.1326467 0.0088467095 -0.47193503 -0.0035635624 0.118470766 0.09630089 0.103188284 -0.13814005 0.2200245 -0.2267645 0.06147956
CTAGGTTA -0.1022744 -0.40053204 0.052762516 0.3168923 0.0738946 0.16172072 -0.15669776 -0.16254869 -0.24704139 -0.1553359 -0.22902466 -0.011837623 0.018836373 -0.034505878 0.31631604 0.32385674 -0.17287979 0.3114445 0.12809727 0.38295674 0.004257915 0.16379972 0.021774877 -0.4241684 -0.020668808 0.00027585434 -0.07376676 0.12988849 0.041439764 -0.42884898 0.06438534 -0.13151526 0.14954756 0.16330512 0.027119795 0.32128817 0.26721326 -0.24253346 -0.3171232 0.18866533 -0.1585971 -0.007653521 0.2679645 -0.26225594 0.31133813 0.20490369 0.057963397 -0.0059776586 -0.12918438 -0.14858703 0.45569643 -0.042529095 0.06657843 -0.019544398 -0.20067339 0.37994373 0.19748564 -0.22049853 0.28574654 0.016638445 0.14534721 -0.056277372 0.003011691 0.116472036 -0.065376446 0.26409134 -0.029254377 0.08088463 -0.0052547413 0.11166685 0.23243871 -0.15214173 -0.43908525 -0.15877074 0.38894802 -0.20037544 -0.07772105 0.3006505 0.12612957 -0.059279926 0.009170481 0.30628058 0.37143922 0.2126725 0.26958978 -0.14012434 0.08275757 -0.11462062 0.16657461 -0.06448546 0.025271438 -0.18217497 0.16682203 0.0770923 0.13532017 -0.089888364 0.53809243 0.09839558 -0.08191416 -0.0075908983 0.28833535 0.22972175 -0.1718982 -0.1778578 0.084798776 0.31718916 -0.004218001 0.42890403 0.1970974 -0.38017726 0.08723668 -0.14002559 -0.06831889 -0.16216582 -0.115320645 -0.16134314 0.31548247 -0.24449825 -0.291844 -0.2560247 0.10755053 0.011593015 -0.12503275 0.32314116 -0.059534956 0.3713746 -0.38692492 0.11033975
TACCTAGG -0.21114878 -0.30037352 -0.25725842 0.49800736 -0.058428656 0.38787508 -0.123868346 -0.049461093 -0.16515343 0.11818698 -0.05515421 0.27593255 0.0059893397 -0.0005704383 0.11888184 0.34439513 0.15008046 -0.028204862 0.20253898 0.1388478 -0.07145785 0.16826534 -0.03303981 -0.13178065 0.08301489 -0.15498039 -0.24445395 -0.28147984 0.21550967 -0.3224133 0.20376195 -0.07119903 0.1759855 0.20136033 0.20006712 0.28453115 0.37395936 -0.24310818 -0.08706642 -0.12789525 -0.09208188 -0.38021773 0.20959263 -0.16637476 0.1420923 -0.04250152 -0.16279435 0.046904486 -0.2811795 -0.006683429 0.30431262 0.05223823 0.107625306 -0.2135325 -0.008688102 -0.045761734 0.39944157 -0.108990945 0.18370417 -0.14975618 -0.22888118 0.20757034 0.12544493 0.07431122 -0.3974797 0.35384044 0.023489932 0.056775793 -0.028371437 -0.08582325 0.06355015 -0.04996752 -0.43993127 0.030119631 0.075525306 -0.32641417 -0.35780057 0.06276469 -0.029129883 0.15244952 -0.18421583 0.35341883 0.24544363 0.47514504 0.3301699 0.0985232 0.22222516 0.12413655 0.48123553 0.097385675 0.05222242 -0.38416985 0.28773737 -0.014332386 0.16593577 -0.06974935 0.11493054 0.25337735 -0.3648395 -0.022849338 0.058651727 0.3084556 -0.49904853 -0.16988288 0.088199124 0.033620548 -0.17085795 0.4145101 -0.01302476 -0.3927912 0.27681383 -0.16020623 -0.18153948 -0.041487306 0.048627723 -0.21202087 0.33828402 0.26095504 -0.13014112 -0.21411994 -0.051065773 -0.14047825 -0.4280319 -0.0061587896 -0.07770269 0.06699325 -0.50868577 0.265532
ACCTAGGT -0.16714191 -0.467968 0.055036396 0.11988042 0.03260037 0.35253248 -0.2821296 0.07630352 -0.34192017 -0.17844297 -0.14470068 0.27530065 0.14758365 0.3748452 0.1243697 0.31832007 -0.022531547 0.3036792 0.11204012 0.16651575 0.04457431 -0.14828825 -0.04029557 -0.5137314 -0.023512335 -0.34719643 -0.00049947895 0.2254297 0.08493692 -0.19480322 0.34706157 -0.14147554 0.060863484 0.26707774 0.04509823 0.011103056 -0.21959385 -0.097106405 -0.39042163 -0.05723796 -0.2490821 0.018501267 0.0055569015 -0.020175014 0.17818855 0.14646786 0.0950684 0.11661987 -0.20626763 0.048642002 0.12364647 -0.25778073 0.09109886 0.0026899597 0.21441346 0.0907521 0.2815807 -0.054094832 0.1483767 0.04688259 -0.038429096 0.12831849 0.30875003 -0.06730714 -0.22495583 0.20391579 -0.20793323 0.060226265 0.22615069 0.053355496 0.09407077 -0.091121934 -0.32951197 -0.27311733 0.012370445 -0.27816665 -0.031276215 0.17258446 -0.28234765 0.14058138 -0.043588456 0.53653663 0.39813855 -0.0022130085 0.46471462 -0.060467295 0.2972984 -0.29630122 0.32328278 0.021882609 6.406825e-05 -0.45998055 0.0306224 0.06750104 0.2692522 -0.16632572 0.24214935 0.18819958 -0.2702086 -0.12678035 -0.1518585 0.2204968 -0.26634893 -0.30850217 -0.21678886 0.4634526 -0.40488428 0.20538537 0.07232532 -0.3786395 -0.08731194 -0.33527932 -0.090556026 0.2490899 -0.35809472 0.046293035 0.38176835 0.10515643 0.04551409 -0.1931541 -0.19603379 0.08606833 -0.2418129 0.04830291 -0.18013479 0.21809898 -0.51130617 0.13318157
CCTAGGTT -0.15532473 -0.21208587 -0.13683008 0.2336569 0.15969166 0.41336617 -0.12986831 -0.026028441 -0.62776166 -0.039807294 -0.010848233 0.065118186 -0.13611814 0.14603215 0.4813839 0.22862689 -0.10142405 0.1360941 0.09113297 0.15883423 -0.19481815 -0.119789146 -0.31030658 -0.37904465 0.07409037 -0.31630346 -0.29564363 0.041380644 -0.1316573 -0.23495202 0.16368134 -0.045606013 0.044013213 0.043856286 0.25715345 0.08098293 0.20625669 -0.16261618 -0.1558949 0.25605908 0.067680754 0.0012357202 0.37311265 -0.11522569 0.3104863 0.071265414 -0.2781335 0.1592252 -0.06803552 0.119339414 -0.0025401423 0.03249417 0.30854166 -0.24370657 -0.067606606 0.20484446 0.10328962 -0.18017201 0.2945424 0.23452349 0.10546636 0.024326822 -0.02398896 -0.02527714 0.0011748283 0.10986677 -0.1806598 0.13042504 0.19281608 -0.19344364 -0.12246619 -0.20726387 -0.3450004 -0.45327237 0.13010482 -0.5687707 -0.22638105 0.40910652 -0.10227862 0.15527582 -0.45340374 0.08701595 0.15444335 0.3324467 0.17206141 -0.18665461 0.42449504 0.1409892 0.37054887 0.19183055 0.022450818 -0.28575844 0.013106966 0.032220237 0.07048125 -0.17595308 0.11223308 0.093603805 -0.37788117 0.07958833 -0.11362427 -0.030801846 -0.36746076 -0.1886097 -0.13270982 0.35008085 -0.099506244 0.187519 -0.127516 -0.09987893 0.10858512 -0.34149793 0.04571698 -0.23294584 -0.042016245 -0.12806389 0.1288481 -0.06379223 -0.16437082 -0.22124228 -0.20872329 0.0063449754 -0.25566798 0.09887616 -0.2815645 0.30433506 -0.11933936 0.17373763
ATACCTAG -0.14487198 -0.6671841 0.03874652 0.3633849 0.28798798 0.35398713 -0.2126152 0.19829874 -0.3178936 -0.2661012 0.054796558 0.34588775 -0.21411219 -0.14222229 0.46548063 0.092045166 0.21802889 0.21659462 -0.0022600475 -0.031692915 -0.29490766 0.19203094 -0.20372708 -0.52540565 0.13232514 -0.13313627 -0.046797194 0.10353484 0.12690778 -0.5344246 0.3031602 -0.12802932 0.40911245 0.06717263 0.09315102 0.028019989 0.082402095 -0.015759746 -0.20336588 0.03226457 0.05672581 -0.10192625 0.099600375 0.051705066 0.21920682 -0.13310046 0.05990115 0.18308862 0.07561696 -0.02964946 0.35100004 -0.15856947 0.19865325 0.22257085 0.14413814 0.014273602 0.14954789 -0.32209033 0.10303721 0.25489068 0.039139472 0.033825446 0.13071322 -0.03490311 -0.28215697 0.47441444 -0.1247362 0.34877515 0.07937147 -0.1638623 0.3783728 -0.13695541 -0.23842399 -0.26900196 0.4117484 -0.13642314 -0.18213634 0.097440064 -0.11491992 0.14005561 -0.15692936 0.2447835 0.29281947 0.089434594 -0.05555828 0.032710887 0.22585705 0.20226552 0.22236814 0.09311451 0.12331048 -0.15972203 0.40091723 -0.01750542 0.22094938 0.1770401 0.07888406 0.20886992 -0.14733298 -0.040372137 -0.07592505 0.26142454 -0.20582573 -0.2889505 -0.030865157 0.28936395 -0.2928189 0.27207112 -0.045815684 -0.27712572 0.02891264 -0.2035052 -0.05429208 0.16253138 0.005980281 -0.29064456 0.13777174 -0.11610314 -0.14965008 -0.27773845 -0.036483902 -0.13402781 -0.022253595 -0.22915207 -0.05735149 0.5292742 0.04898558 0.32454008
GATACCTA -0.01479495 -0.391094 0.18560486 0.5343016 0.13977793 0.16612619 0.13920797 0.17508923 -0.32739443 -0.34149855 0.22438438 0.25433278 -0.10271448 0.09497068 0.3704977 0.25297952 0.17136095 0.12736346 -0.056101386 0.08085302 0.019125052 0.08005835 -0.028883722 -0.47426444 -0.056176163 -0.016640738 -0.108625144 0.29683977 0.36291972 -0.30178192 -0.027277475 -0.0054519316 0.18634306 0.25443065 -0.107319415 -0.14864413 0.11007025 -0.34028578 -0.13055603 0.10468303 0.12757166 0.04383131 0.31704015 -0.17780353 0.41398126 -0.019331347 -0.36826664 0.11037782 0.076825336 0.0843635 0.18167199 -0.091829516 0.2232192 -0.27300233 -0.13025802 0.14156476 0.51165795 -0.12345756 0.16747059 -0.14209324 -0.30405957 0.31513402 0.016306635 -0.07845524 -0.20378938 -0.03020749 -0.096504234 -0.024717052 0.29217306 0.22708914 0.19182752 -0.061304767 -0.3873405 -0.37707245 0.1331649 -0.19529086 0.016165026 0.2517654 -0.22241722 0.080300406 -0.14420076 0.34954524 0.30339763 -0.055642586 0.35253826 -0.22405693 0.058626313 0.20008379 0.5037232 0.16185807 0.28970927 -0.418732 0.1919855 -0.04385966 -0.110710874 -0.09933623 0.23945074 0.37599063 -0.05164862 0.04569318 0.15586986 0.14672837 -0.40513143 -0.22792475 0.17342311 0.13765715 -0.17859936 0.084455416 -0.06990119 -0.16753401 0.3396728 -0.19478467 -0.1751456 -0.11329819 0.06507052 -0.07939967 0.32067505 -0.0361692 -0.035028946 -0.45650813 -0.08982726 0.023463544 -0.044523317 0.120077945 -0.2693638 0.37574157 -0.47736102 0.03614697
AGATACCT -0.062397055 -0.47281224 -0.011616969 0.52475953 0.069611736 0.46857435 0.036797363 -0.21814236 -0.28714514 0.0095418235 -0.098624155 0.17964467 -0.13747522 0.19392689 -0.006948763 0.13101591 -0.17598668 0.3807821 -0.086543664 -0.32523608 0.0065603694 0.07564667 0.014541007 -0.36392474 -0.22948982 -0.24412857 -0.33900908 0.115700915 0.21664628 -0.36519155 -0.16665694 -0.013560423 0.25777018 0.3111257 0.26687407 0.057828043 0.28838125 -0.26966408 -0.02417561 0.2607037 -0.20537029 0.054552045 0.2289792 -0.18387319 0.2372922 -0.053343654 -0.077684045 -0.12715779 -0.12974812 0.10684052 0.18648873 0.11036501 0.13332172 -0.2324011 0.09964707 0.16932614 0.07969066 -0.23574558 0.31794816 -0.1555426 -0.042938802 0.27505383 0.19256604 0.0448962 -0.39436075 0.22970161 -0.122029066 0.23314112 0.09764091 0.1504875 0.15817867 0.13060336 -0.23934747 -0.09686416 0.33519733 -0.23507705 -0.29828832 0.082404636 0.034993943 -0.08577585 0.1538109 0.09870653 0.17862171 -0.068164535 0.17472437 -0.23622334 0.5904549 0.08074061 0.47630572 0.2913834 0.45280135 -0.18659636 0.22924446 0.006218933 0.10124359 0.03741106 0.050954156 -0.13157262 -0.4979821 -0.16890456 0.022477565 0.27113232 -0.23982237 -0.39373678 -0.24389018 0.3398165 -0.1312184 0.12080737 -0.1479227 0.09936582 -0.034689177 -0.351716 -0.16946411 0.22210819 -0.100959636 -0.17423312 0.3876203 0.040641002 -0.11732806 -0.29945135 -0.12654811 0.20267466 -0.08639576 0.24039519 0.15797529 0.22111683 -0.16844833 0.15311727
GAGATACC -0.20767783 -0.26724625 -0.037696328 0.08190737 -0.15905058 0.13426566 -0.35556838 0.13241 -0.25228703 -0.006861273 0.012426104 0.1927254 0.16463776 0.30871785 0.25809222 0.45263273 0.2417421 0.15914904 -0.058347348 -0.3119047 0.06443753 0.22341962 -0.06172671 -0.75903356 0.0817978 -0.22248107 -0.40962532 -0.016883986 0.36509493 -0.3855679 0.07385414 0.090318665 0.14121905 0.26013348 0.11362544 0.23912464 0.2876139 -0.23590866 -0.3217395 0.06311686 -0.09903355 -0.12379531 0.5192686 -0.2616487 0.108402096 -0.04238332 -0.4470228 -0.058192693 0.13991043 0.23465389 0.2551042 -0.034623757 -0.070474505 -0.062511556 0.21227184 0.30416477 0.097260654 -0.17042103 0.012337509 0.20624316 -0.20909065 0.24538802 -0.04000236 0.18375048 0.018283002 0.17253432 0.1671166 0.2166083 0.11439857 -0.09466583 0.108421884 0.07093398 -0.2540323 -0.19166683 0.24173187 -0.23974706 0.072191775 0.13141769 0.0080490215 0.2332555 -0.18008947 0.19182216 0.44556507 0.1343254 0.20523064 -0.2309981 0.10782758 -0.020514729 0.35202563 0.08678519 0.04566975 -0.3767248 0.09983809 0.07191025 0.10659166 -0.19991098 0.44727695 0.06950264 -0.36798653 0.08051696 -0.07398152 0.3123174 -0.44093922 -0.2115967 -0.07650111 0.15812396 -0.15797172 0.3335822 -0.034547668 -0.13801527 0.0015813909 -0.18337114 -0.05146454 0.14318267 -0.22073057 0.109351866 -0.03164141 -0.017594323 0.07758613 -0.4841895 0.12039108 -0.023899673 -0.028801598 -0.07648164 0.21054357 0.4674445 -0.132852 0.026002072
CGAGATAC 0.15098538 -0.2022024 -0.06497868 0.5424105 0.13092655 0.3762129 -0.03052742 0.13985589 -0.085507 -0.15274112 -0.21453032 -0.11079124 0.21269272 0.31506732 0.23949333 0.39572856 -0.023996254 0.051426984 -0.3268799 -0.10656826 0.1642709 0.26713455 -0.1712571 -0.5033485 -0.1747739 -0.06814392 -0.14435114 0.20667554 0.2067615 -0.36269933 0.09836587 -0.41360015 0.39887565 0.13935691 -0.1681062 0.13577677 0.24176389 -0.12376776 -0.0932049 0.01430279 -0.24119693 -0.19031465 0.16612734 0.059965655 0.34367093 0.10675935 -0.10311876 0.19346288 -0.3184912 -0.009567093 -0.19394295 0.019264152 0.35638586 0.047122203 0.16383943 0.10885589 0.32809404 -0.22963 0.17614827 -0.090091646 -0.050176162 0.19449914 -0.309551 0.06135513 -0.04098593 0.14662491 -0.17246352 0.29166463 -0.16299213 -0.14382789 0.20545061 -0.062747814 -0.39660427 -0.13696118 0.26169658 0.055098854 0.08106726 0.25088736 0.23809208 0.121891946 -0.20461063 0.05191354 0.42625046 0.18088676 0.054752186 -0.13221924 0.34478918 -0.016412875 0.34316728 0.15188137 0.12467154 -0.271427 -0.019238023 0.12319282 0.03658171 -0.28829283 0.110999145 0.37062588 -0.385777 0.120395206 -0.039319504 0.17830296 -0.36217263 -0.38115504 -0.0948818 0.47194114 -0.38971102 0.23493017 -0.012071598 -0.20989266 0.23971048 -0.28844288 -0.10403605 -0.01099639 -0.046838723 0.008123694 0.11539516 0.13597244 0.048974697 -0.4760282 -0.056945376 -0.049688406 -0.18831451 0.025041545 -0.06979667 0.18590043 -0.13669342 0.28187925
CCGAGATA -0.20489974 -0.4716454 -0.17977871 0.4152957 0.08533914 0.38245666 -0.08509722 -0.018270006 -0.58105415 -0.13481346 0.14739786 0.0044260565 0.25820616 0.16878231 0.28699672 0.2670971 0.12113691 0.15288594 0.056238983 -0.1167808 0.07997753 0.32506233 0.09734495 -0.3931941 0.016957017 -0.112016544 -0.4229094 0.35444593 0.08533958 -0.59783036 0.1331335 -0.3800293 0.29501837 0.20777252 0.060287993 -0.08697719 0.28927287 -0.3671494 -0.1600835 -0.06863979 -0.07162046 -0.10423586 0.08366865 -0.33220354 0.23202834 0.098836705 -0.014099294 -0.047495637 -0.11998355 0.1972332 0.19518451 0.23966135 0.29709816 -0.17544033 -0.024692858 0.34140667 0.25588322 -0.2100848 0.16338582 0.3602351 -0.084963694 0.042308565 0.23945202 0.25060052 -0.05927008 0.37850305 0.18306525 -0.13913411 -0.06744256 0.019843828 0.04498623 -0.13218932 -0.12793662 -0.111313455 0.08019638 -0.29092023 0.1399577 0.1354675 0.07842511 0.26122543 0.05020231 0.28896424 0.15956555 -0.020249674 0.24113575 -0.053825248 0.19340679 -0.046492796 0.28966564 0.021012904 0.29509512 -0.19968861 0.29380184 -0.027994437 -0.008597058 0.11125395 0.031459164 0.13905297 -0.23296696 0.08494844 -0.23025355 0.15845707 -0.11860528 -0.08282727 -0.2002536 0.17065023 -0.32352975 0.20236267 -0.32762477 -0.119920164 0.14952251 -0.21281281 -0.08034474 -0.029879605 -0.14237362 -0.04581893 0.0451646 0.097041614 0.012613274 -0.6136442 -0.31190157 -0.41454768 -0.24198136 -0.09446619 -0.031256206 0.010474069 -0.46911666 -0.03423517
CCCGAGAT -0.19414654 -0.3822201 0.21116887 0.43737915 0.09587354 0.49511412 -0.11629011 -0.056028906 -0.43806562 -0.3113255 0.11496462 0.38532102 -0.12982027 0.1389137 0.07844175 0.2981257 -0.19009769 0.24419378 -0.19522347 -0.20526502 -0.051351096 0.15255927 0.0033158108 -0.39443728 0.08380862 -0.29218265 -0.3021201 -0.003427243 0.34817368 -0.5979466 0.39385283 0.14720228 0.35017428 -0.015034888 -0.049794063 -0.17585689 0.47955343 -0.024182035 -0.3486402 0.02545432 0.12523223 0.011544432 0.42755556 -0.23313622 0.27027148 0.15771776 -0.064151056 0.03476528 -0.07717888 0.19377168 0.07300582 0.0028128966 0.2974993 0.061237343 0.007283267 0.3969571 0.10957966 -0.014667512 0.21204774 0.048230577 -0.056327533 0.27507716 -0.107387215 -0.16875648 -0.022123493 0.079594165 -0.023582611 0.22941573 0.06456192 0.013172433 0.25389525 0.18042454 -0.19445188 -0.080299936 -0.073828734 0.10292205 -0.03177406 0.31059128 0.07896041 0.13018695 0.09845076 -0.045232214 0.18537343 0.10836788 0.28995052 0.0168879 0.29077685 0.12626351 0.24152687 0.23745102 -0.0054648146 -0.2977392 0.040996373 -0.05568566 0.1003862 -0.2544843 0.36619034 0.20872796 -0.46931714 0.16744667 -0.12479205 0.38841966 -0.26756445 -0.06450962 -0.07759964 0.103710555 0.08890315 0.21530266 -0.14642085 -0.44526455 0.33537862 -0.35156322 -0.20099895 0.123516485 -0.10806927 -0.39826086 0.1968173 0.3325043 -0.10298542 -0.35713872 -0.2882352 -0.1507685 -0.08074646 -0.06921894 0.08459921 0.2761012 -0.3086288 0.10141688
GCCCGAGA -0.18901324 -0.41683108 -0.0035530892 0.5274452 0.2812226 0.18143567 -0.3252334 0.35455003 -0.23324968 -0.2880039 0.23284404 0.1729356 0.080560066 0.02414248 0.20714103 0.45808724 -0.32442537 0.29323438 0.037310716 -0.20511469 0.087745644 0.36934015 0.26196006 -0.38938543 0.20102282 -0.04731113 -0.27539384 0.39343232 0.40322387 -0.21835832 -0.35921285 -0.14067592 0.28993258 0.12237445 0.21990275 0.13543507 0.2015915 -0.039808538 -0.29662058 0.14422023 -0.36000797 -0.4034695 0.25217456 -0.12827459 0.41176224 0.25371894 -0.056159362 0.17094894 -0.006034417 0.29531115 -0.010141453 -0.0500216 0.06143184 -0.011063041 0.21960075 0.09184089 0.35244024 0.026570516 0.2244629 -0.031101648 -0.27564204 0.18274641 0.1543875 -0.13677932 -0.032692526 0.31107825 0.06457147 0.12528661 -0.09931287 0.11909457 0.13818061 0.03520046 -0.20305112 -0.36434832 0.041381866 -0.32677758 0.01492837 0.3444437 -0.018462978 -0.13724461 0.08147511 -0.0060387193 0.18971464 0.23216599 0.14769666 -0.12312229 0.2078805 0.016106945 0.3208681 0.31160516 0.008236748 -0.3333751 0.102068566 0.07987654 -0.01841868 -0.110216826 0.17629582 0.023551745 -0.034090143 -0.13965236 -0.21667956 0.27958086 -0.42304984 -0.13336559 -0.23002967 0.19570503 -0.18964924 0.2776523 -0.42728946 -0.28678045 0.14133258 -0.34901887 -0.30629757 0.057067566 0.17460185 -0.1707891 -0.0156373 -0.0053196764 0.089972936 -0.07509114 -0.25120744 -0.11865676 -0.11112443 -0.10266602 0.4405612 0.25353953 -0.16803358 0.34416255
CGCCCGAG 0.03832188 -0.35569686 0.19287571 0.20492241 0.14564115 0.22394532 -0.1591027 0.011481822 -0.45081022 -0.055858288 0.1540162 0.059377197 0.3159953 0.100008935 -0.030046986 0.2083771 0.009045056 0.41578886 0.053608954 -0.11656995 -0.07668967 0.47958744 -0.2177926 -0.55802935 0.06341389 -0.46437463 -0.25485414 0.13158035 0.22007911 -0.36852062 -0.03152212 0.048951007 -0.022322532 0.23114167 0.11737898 0.20305026 0.53171057 -0.041095305 -0.20462035 0.06714409 -0.14683728 0.11188707 0.41961583 -0.0636758 0.20414902 0.22305037 -0.17436416 -0.2101492 0.020409217 0.22868687 0.38252285 0.14483431 0.35042548 -0.15483332 0.026601143 0.22821791 0.34047362 -0.10256128 0.16274875 -0.09111033 0.11133994 0.1769371 -0.10055635 -0.27163073 -0.033748843 0.21872345 -0.15807723 0.20888317 0.10250397 -0.12763752 0.1911124 -0.22359426 -0.28755772 -0.27935582 -0.14221874 0.1104985 -0.004325881 0.2539976 0.0074605066 0.2492881 -0.04001235 0.13309553 0.31657547 -0.084412925 0.19184072 0.00761083 0.17414337 -0.033362214 0.30527532 0.16626704 0.26142704 -0.17651905 0.15643445 0.118702985 -0.07846004 0.15983792 0.19165802 0.17278507 -0.21093439 -0.032022674 0.094987735 0.3735273 -0.4832806 -0.26225016 -0.01644971 0.3782203 -0.46521798 0.25924075 -0.26892492 0.01758549 0.25260907 -0.63727176 0.24107723 -0.027304435 0.18433975 -0.13564488 0.042315867 0.14607044 -0.021973554 -0.29396972 -0.12398349 -0.0033732322 -0.30623212 -0.484432 0.16199446 0.27824572 -0.24596244 0.16827404
ACGCCCGA 0.056715906 -0.5060255 0.03026364 0.28905487 0.25977603 0.3308042 0.088217534 -0.17667294 -0.44684908 -0.17936984 0.004935016 0.24467248 0.13209349 0.082452275 0.24960178 0.3161022 0.09722357 0.1685202 0.26747257 -0.16960004 0.02698958 0.32309195 -0.20876125 -0.41082683 0.17860071 0.26932546 -0.27919093 0.23086421 0.5803233 -0.21519093 0.11224218 0.09397989 0.23010564 0.2086065 0.322098 -0.189006 0.37393513 0.15712112 -0.37067512 0.17094155 -0.28521022 -0.13467489 0.1574909 -0.0027109508 0.5355893 -0.091120146 -0.29084706 -0.014696781 0.04890744 0.07322267 0.0020665496 -0.012582108 0.08029291 -0.024600407 0.16386016 0.38625035 0.1031627 -0.10369862 0.05122649 -0.025491517 -0.12217617 0.035022076 0.039414994 0.33455274 -0.073322915 0.18291397 0.22987966 -0.05498847 0.09171425 -0.08939466 0.20946914 0.15787515 -0.46430853 -0.3349573 0.25313672 0.1365742 0.21364707 0.1739754 0.2093105 0.006385869 -0.095416285 -0.10457174 0.2457884 0.13422559 -0.065175 -0.17909838 0.05507887 -0.0062170033 0.29671454 0.2281788 -0.0065442687 -0.2158444 0.061296444 0.12060651 0.16688071 -0.00686888 0.03429285 -0.021649258 -0.5817658 -0.20888631 -0.1189921 0.23941857 -0.25851288 -0.2721116 -0.086716875 0.42773956 -0.31964234 -0.010463662 -0.048884477 0.1162196 0.27372444 -0.37905496 0.110940784 0.1370338 -0.056861326 -0.3114195 0.16889144 0.13065602 0.015591884 -0.4407639 -0.2547843 -0.43268254 -0.18851922 -0.17137313 0.11174605 0.3381381 -0.6692923 0.24509545
GACGCCCG -0.12622029 -0.4304398 -0.095012195 0.7725911 0.33364317 0.44664088 -0.07894147 0.006162676 -0.24797226 -0.20692003 -0.15094757 0.17414181 0.36569053 -0.028985478 0.10575281 0.25124303 -0.06516305 0.4695668 -0.12942201 -0.10446614 0.05803722 0.504042 0.37438568 -0.50685227 -0.060651623 0.01022131 -0.29240584 -0.135832 0.22611943 -0.34162948 -0.12901857 -0.042964872 0.38703367 0.18524766 0.1075903 -0.050032 0.27477825 0.014024421 -0.30314136 -0.04549865 -0.12639284 -0.033531044 0.23366576 -0.17049505 0.40040308 0.20237201 -0.5656901 0.030858524 0.45669135 0.19499743 -0.08077524 0.30998418 0.14057182 0.08518588 0.004389349 0.2625335 0.20668964 -0.16555808 0.09501654 -0.27736658 0.07116321 0.2472025 -0.0092506455 0.09704189 -0.016567854 0.16263513 0.08482928 0.1592594 0.29544425 -0.08143183 0.23127787 -0.19412144 -0.23541458 -0.32493272 0.05180808 -0.05707742 0.0401354 0.1848497 -0.34192762 0.42945945 0.058241457 0.18543154 0.36135027 0.24777412 0.23540995 -0.22745615 0.34722784 0.09700026 0.26323083 0.11234888 0.07773234 -0.25812784 -0.0486778 -0.12304593 0.24806307 -0.0009487789 0.045655236 0.47573063 -0.41423798 -0.077596836 -0.034105048 -0.031094337 -0.07935543 0.09963431 -0.09720204 0.18136555 -0.22551635 0.33837643 -0.18030669 0.025200445 0.30431437 -0.2939237 -0.001959147 0.29605278 -0.13913262 -0.102905445 0.08252984 -0.061868653 0.25715685 -0.25273606 -0.2849353 -0.042346224 -0.027509237 -0.3746386 0.21978039 -0.04380455 -0.30144104 0.08032198
AGACGCCC 0.019667927 -0.36127254 -0.0034953197 0.4247322 0.10285799 0.28880784 -0.12119806 -0.22898133 -0.45195034 0.010964602 0.2773609 -0.03330098 0.32173422 0.027653398 0.4244466 0.31962368 -0.32006258 0.19239874 -0.13020419 -0.2693762 0.19044033 0.2178545 -0.18445724 -0.46510726 -0.4393273 -0.11384093 -0.29151306 0.34126952 0.3557716 -0.3299851 -0.15345109 -0.021574559 0.32131436 -0.105075195 0.3109713 -0.1691139 0.24619848 0.19128865 -0.05162938 -0.15515736 -0.04147214 -0.20424011 -0.055604395 -0.04734876 0.42739752 0.17912081 -0.3649904 -0.026959507 0.057966042 0.49718177 0.30696133 -0.09386246 0.172619 0.097968504 0.07962075 0.101343796 0.26227155 -0.16351303 -0.21917747 0.15585662 -0.07468988 0.43386093 0.21015507 0.16566442 -0.31536502 0.008157224 -0.016855076 0.2734498 0.16218956 0.075802274 0.027002245 0.09733523 -0.3358799 -0.27787784 0.011844109 0.14667287 0.009161088 0.20228879 -0.030865723 0.21263383 0.12349646 0.019777535 0.49500874 0.18905365 0.3276181 -0.08444571 0.154176 -0.0855937 0.2100247 -0.050982777 0.16252612 -0.059190188 0.16022356 0.12726313 0.09203595 -0.03946528 0.22366509 0.23326173 -0.29687822 -0.3427351 -0.16001469 0.30913106 -0.38560718 -0.05877706 -0.2640032 0.30247936 -0.034726076 0.47459486 -0.20486154 -0.15424377 0.26246718 -0.35104164 0.14878163 -0.0020873682 0.019294392 -0.3383168 0.08033918 0.17958851 0.066771984 -0.3848257 0.09356383 -0.1569331 -0.16411212 -0.23925409 0.18781257 0.14893909 -0.07719697 0.06372784
CAGACGCC 0.23603651 -0.41575944 0.06750051 0.4530759 0.17263134 0.58887017 -0.24707603 -0.078267254 -0.14559484 -0.16153511 -0.06098324 0.3920915 0.46844515 0.07519577 0.07251063 0.5754416 -0.2623963 0.13590044 -0.19918475 -0.1601819 -0.14706592 0.1508371 0.05919281 -0.4529485 -0.10221536 -0.09253761 -0.03567203 0.23299079 0.1801216 -0.28498882 0.0895074 -0.18814139 0.16229856 0.31192318 0.027621584 0.050653644 0.7104204 0.050665725 0.26214343 0.20858169 -0.15770833 -0.08053766 0.31858647 -0.1878533 0.4859012 -0.090411924 -0.15732135 -0.18934013 0.11002605 0.33305776 0.27735978 -0.23501521 0.28590393 0.11209888 0.07453751 0.4329289 0.3195876 -0.1974066 -0.09685851 0.1738616 -0.29120597 0.43680546 -0.059234228 -0.14692722 0.056347165 -0.17310971 0.13385421 -0.13841595 -0.016244905 0.13324529 0.44679126 0.088630415 -0.3103308 -0.18096165 -0.07362752 -0.09878528 0.28586787 0.18545403 -0.07283266 0.2601773 0.08658971 0.10481037 0.3603312 0.1601472 -0.022902008 0.029839108 0.18729451 -0.06073583 0.43121773 0.11663623 0.18220565 -0.3496425 0.107457004 -0.011019131 0.20282482 0.20406179 -0.15023454 0.04406472 -0.3733837 -0.25380284 -0.12278195 -0.022753572 -0.22561784 0.18658024 0.04246333 0.16368555 -0.100216165 0.11954011 -0.362818 -0.10692848 -0.00011215779 -0.33062494 0.19061625 0.43232527 0.0212054 -0.28083998 -0.11484132 0.00012985134 0.070189685 -0.31585222 -0.10928994 -0.23589918 -0.35999507 -0.20229135 0.31686628 0.25225785 -0.16470195 0.032632057
TCAGACGC 0.18690875 -0.22913048 0.15354195 0.2721576 0.09744746 0.23124534 -0.109302424 0.035574526 -0.45921743 -0.13925563 -0.059032932 -0.043596815 0.33448312 -0.17787144 0.38530493 0.29363135 0.07220129 0.21260315 -0.15579215 -0.24222924 -0.17474397 0.23700956 0.033275492 -0.44484508 0.118814304 0.06175625 -0.25201693 0.096700475 0.36044475 -0.5271267 -0.1572133 -0.15788236 0.2632468 -0.0006866101 0.016762402 -0.033498436 0.3087948 -0.34256226 -0.18514939 0.12391539 -0.14266165 -0.089028366 0.15638237 0.111847505 0.42606032 0.1679936 -0.23961495 -0.14697304 -0.037621394 0.13981712 0.45413154 0.07037274 0.54709584 -0.013215513 0.40252176 0.23523962 0.5817134 -0.0020644919 0.12619455 -0.02206127 -0.04276682 0.1491803 0.05892358 0.18756145 0.079026856 -0.18118875 0.3778433 0.1513999 0.35660762 -0.03275889 0.27496973 0.40027878 -0.12680304 -0.070365 0.12509312 0.0489688 -0.034367774 0.4465271 -0.040685683 0.23088002 0.031627465 -0.03015001 0.34004718 0.10373568 0.25144506 -0.07361367 0.17957222 -0.013699474 0.42454225 0.3506644 -0.041794516 -0.020119889 0.07567702 -0.024030682 0.097503096 -0.12984256 0.0073015313 0.004650829 -0.42302427 -0.2107142 -0.04515323 0.053405456 -0.28027287 -0.019446371 0.005509432 0.1896268 -0.29016757 0.24869968 -0.14287403 -0.1710929 0.34710568 -0.7277929 -0.14027724 0.21892504 -0.2523748 0.04154407 -0.07822817 0.054317445 0.20614734 -0.023737127 -0.37239474 -0.30517572 -0.06087709 -0.41805068 0.3918272 -0.06762692 -0.14370915 0.18271641
ATCAGACG 0.15466993 -0.33213776 -0.13284889 0.4188035 -0.08080144 0.52898675 -0.18605603 -0.100147344 -0.1702019 -0.2614605 0.32425678 0.46715683 0.16005711 0.2086863 -0.14888743 0.25000745 -0.064800344 0.24614081 -0.005557548 -0.38581607 0.24362728 0.35479236 0.1608658 -0.2820509 0.0045741037 0.27738488 -0.3345127 0.2636605 0.60819286 -0.6698314 0.005409898 -0.15984884 0.18713094 0.13043204 0.19666621 0.093560874 0.09005744 -0.03794402 -0.15214328 0.21057187 -0.27930722 -0.19927852 0.37040237 -0.31283626 0.4279887 0.04329534 -0.2108127 0.039867964 -0.1175044 0.38627952 0.21710947 -0.07910447 0.44236067 0.004179206 0.011729707 0.14380746 0.35928825 -0.09039079 -0.14886278 -0.09624887 0.2743135 0.08499694 -0.19818543 -0.030937966 0.19975069 0.08286953 0.08212716 0.15091643 0.013205251 -0.1263258 -0.06585034 -0.09949688 -0.11659745 -0.18727536 0.31731886 0.15971358 0.02358388 0.42181456 0.041579712 0.2407218 0.075809695 -0.046580285 0.11991937 0.11725544 0.3588008 -0.06742003 0.13635053 -0.21593764 0.190687 0.17436896 0.04900547 -0.3691963 0.18676895 0.18730062 0.12228764 0.16026738 0.10306654 0.08264875 -0.34450144 -0.44862795 -0.13257448 -0.2380798 -0.34203961 -0.12553681 -0.12714323 0.064688616 -0.36496076 0.31370127 0.028296528 -0.206028 0.3668084 -0.406492 0.22260763 0.19255003 0.19955844 -0.31436977 -0.1445823 0.069195636 0.2075415 -0.19717321 -0.097628005 -0.012997426 -0.22121212 -0.29235193 0.092234075 0.13044713 -0.11994945 -0.14661692
GATCAGAC 0.21692072 -0.43525428 0.07072865 0.28749013 0.24939546 0.2585006 -0.13109607 -0.055277858 -0.25920302 -0.05680703 0.18155706 0.078954384 0.26813117 0.30657154 0.12688783 0.27024198 -0.10788354 -0.07118828 -0.07647201 -0.13753319 -0.07759896 0.27230725 0.16889143 -0.19283998 0.107052185 0.25131238 0.1358624 0.37760693 0.36060673 -0.36332968 -0.31969813 0.06979717 0.33060867 0.2880249 0.18812135 0.087418556 0.41162515 0.23609042 -0.111442626 -0.21471512 0.037630282 0.023348145 0.29445744 -0.23105426 0.16037266 -0.034055375 -0.3673617 -0.17726833 0.27425766 0.1905823 0.2020603 -0.07391853 0.37826595 -0.06563437 -0.05781853 0.38918355 0.22035697 0.10739819 -0.05044052 -0.13013591 0.13645889 -0.04521703 0.09112676 -0.09675493 0.08164532 -0.14088203 0.26260087 0.09863195 -0.026158853 0.0067038615 0.2670016 0.021793606 -0.08193649 -0.067073636 -0.2105088 0.08728774 0.09703218 0.017175598 -0.17744985 0.27880895 0.15061752 -0.41541332 0.25291744 0.3286136 0.23989472 -0.15902635 0.44424525 -0.39618838 0.192105 0.27277806 0.19432905 -0.17509529 0.36443463 0.13229963 0.19327877 -0.22479881 0.03175296 0.22435746 -0.20390594 -0.33035123 -0.058648158 -0.06317246 -0.40427464 0.11023616 -0.224745 0.28054035 -0.268945 0.6593487 -0.15712161 -0.09446139 0.055538893 -0.50926584 -0.10333963 -0.06762101 -0.32625708 -0.12689431 0.055224326 0.2584755 -0.0117209405 -0.33787784 -0.20244755 -0.35507703 -0.2342548 -0.43939593 0.1167287 0.31779316 -0.24362917 0.14488237
GGATCAGA 0.23315474 0.15388672 0.13636397 0.26158732 0.05311948 -0.01260511 -0.013249447 0.08479544 -0.44843793 -0.15902582 0.22316022 0.3143346 0.06462161 0.12522818 -0.20764351 0.29681888 -0.25179204 0.17361264 -0.07397561 -0.057805084 0.19928397 0.3551279 0.09293065 -0.24297951 0.10730394 0.055826124 -0.19576372 0.30913436 0.12131118 -0.26808903 -0.009744783 -0.14612319 0.28874186 0.19554827 0.19502258 0.04469356 0.48541334 0.414032 0.00023632852 -0.07464951 -0.275439 -0.08472313 0.32495725 0.2418283 0.5187063 0.022398995 -0.09883509 -0.16443941 0.026120262 0.27391845 0.28905225 0.32778063 0.34305713 0.16832852 0.098539986 0.3332102 0.582362 -0.046185117 -0.13978535 0.22709587 0.03362652 -0.040775824 0.11502514 0.039484095 0.10953754 -0.14768995 0.22665389 0.2005592 0.17372306 -0.17867106 0.22902922 0.12841916 -0.38537356 -0.23000766 0.1557668 0.024025252 0.058715526 0.048427958 -0.091095105 0.61480355 -0.110492654 -0.08940564 0.21733989 0.2135246 -0.09596612 0.18272617 0.19639403 -0.23166046 0.17614724 -0.03975923 -0.039609406 -0.25217932 0.385048 0.023453947 -0.020245219 0.051200654 0.22588776 0.21673575 -0.37901312 -0.30429593 -0.21498272 -0.054836117 -0.4132178 0.07901549 -0.3832554 0.27239397 -0.07432936 0.28653318 -0.1966074 0.05585735 0.34682488 -0.49466288 -0.18148139 0.34125805 -0.31711417 -0.32792026 0.32552 -0.0890538 0.34627226 0.013526956 -0.06768391 -0.05331268 0.05551679 -0.39084765 0.11718313 0.17184779 -0.32394937 0.077887334
TGGATCAG 0.11360859 -0.075886354 -0.14291549 0.36688304 -0.18223502 0.107837215 -0.016108813 -0.26524794 -0.2412748 -0.018309202 0.039590813 0.19180723 0.36027494 0.099184915 -0.12117867 0.20250386 -0.44067743 0.53003836 -0.180077 -0.26113027 -0.09210318 0.12573 -0.046136204 -0.2537366 0.15481324 0.32052583 -0.009370116 0.32444897 0.3948156 -0.41423085 -0.085489504 -0.015877845 0.27435586 0.28957477 0.052814767 -0.0686482 0.32510337 -0.06048241 -0.19478776 -0.019237338 0.054267112 -0.18855831 0.36733493 -0.029124582 0.4874669 -0.014821304 -0.28253838 -0.07521093 0.08037666 0.14266975 0.30904472 -0.0939479 0.4703048 0.1296073 -0.11893863 0.31852373 0.36066464 0.17557219 -0.39835942 0.0022991486 -0.15976809 0.24578582 0.41788286 -0.2371696 -0.07095458 0.10738663 -0.051199473 0.111068524 0.24572422 -0.6117269 0.26382843 -0.07265813 -0.7331279 -0.23349671 0.17322442 -0.08999616 0.1896 0.26650575 0.011497289 0.21263611 0.07545759 -0.27244774 0.44432536 0.2863397 0.2556884 0.07619688 0.32898936 -0.19912082 0.152395 0.2500731 -0.036689695 -0.113149785 0.16579972 0.103104055 0.04358114 0.0503655 -0.13976042 -0.049216196 -0.14414889 -0.086946785 -0.13942689 -0.15062322 -0.11807611 0.22117135 -0.19922209 0.20868835 -0.3636918 0.16033259 -0.16545513 -0.09576304 0.26044914 -0.41615218 -0.056417484 0.04210454 -0.12853669 -0.13339074 -0.12465536 0.06020247 -0.038048442 -0.31394058 -0.27297115 -0.19189447 -0.23074189 -0.3934359 0.4586533 -0.10069308 -0.24610983 -0.07321433
TTGGATCA -0.019396953 -0.03524395 0.08373261 0.13970135 0.27453333 0.22368684 -0.048124034 -0.14279906 -0.11392783 -0.004750279 0.31056786 -0.03418737 0.14523359 0.052892067 0.16077846 0.14427297 -0.21772112 0.1840553 -0.17967442 -0.104392014 -0.087144576 0.051102776 0.08774469 -0.094868354 -0.3823961 0.23151131 -0.025514867 0.20476088 0.34327543 -0.49314454 0.046088547 -0.23118792 -0.1229462 0.11355005 0.07403912 0.120382175 0.11173007 0.06739776 -0.16258056 0.21038264 -0.043707166 0.028411666 0.17815062 -0.39247996 0.30719012 0.19260308 -0.084684186 -0.13106559 0.24247646 0.20454772 0.037746914 0.12640058 0.2813724 0.21909367 -0.118548475 0.16445322 0.45065394 0.16854459 -0.2317401 -0.26246974 0.07622914 0.033735856 0.2385328 -0.015870513 0.3456122 -0.16345589 0.15417011 0.053958237 0.27229494 -0.09124973 0.30586204 0.12706423 -0.41529632 -0.07838948 0.17759626 -0.2626456 0.040025745 0.050879173 0.019233128 0.52899015 0.058488507 -0.18259235 0.36328498 0.26346797 0.16324016 0.22565603 -0.056700423 -0.015591172 0.22911167 0.1746234 0.34247628 -0.20191672 0.27696273 0.26235002 0.17802174 -0.056032985 -0.014483299 0.14960681 -0.6428111 -0.42480582 -0.38426727 0.016701931 -0.40859973 0.070349015 -0.17315559 0.1781512 -0.2937724 0.28936657 -0.19537568 -0.148462 0.22599842 -0.60343134 0.15432927 0.16353008 0.123068 -0.48516724 0.23532625 -0.23774782 -0.10268689 -0.37880567 -0.30560225 -0.40125746 -0.10960626 -0.48333722 0.42527854 0.08641977 -0.19294329 -0.023247736
ATTGGATC 0.01843863 -0.25568452 0.16548498 0.3681267 0.27701584 0.2391565 -0.05837995 0.2639257 -0.44351888 -0.03889419 0.13726863 0.027015308 0.095883206 0.12202421 0.3829014 0.41960773 -0.22436528 0.37656668 0.059430744 -0.06449568 0.23405087 0.26541868 -0.35584608 0.1594384 -0.11961881 0.2802093 -0.042081766 0.12456665 0.44644228 -0.22455944 0.08046648 0.03968703 0.11712415 0.16432334 -0.26679656 0.18757486 0.37685347 0.23418126 -0.16350415 -0.15868014 -0.04957859 0.08727086 0.05398195 -0.19822405 0.29656947 -0.006073945 -0.35383844 -0.2001624 -0.14787509 0.13085496 0.14796749 0.084029034 0.5367912 0.027980965 0.03820069 0.25828487 0.25020385 0.28438473 0.10820551 0.01797174 0.0905352 0.32839677 0.17342909 -0.016490923 0.2006845 -0.22766435 0.1370253 0.11052402 -0.058943752 -0.14768672 0.12494424 0.1277826 -0.37244332 -0.298197 0.101217814 -0.13722259 0.24362385 0.2552343 -0.03509289 0.35498092 0.0030244675 -0.12101862 0.17788926 0.2214449 0.47970402 -0.026073726 0.222982 -0.42109668 0.31216028 -0.029008975 0.12518495 0.020454431 0.38225728 0.007730809 0.33110523 0.36023727 -0.0286864 -0.02491247 -0.4008281 -0.36218524 -0.10825644 0.0137761375 -0.08712965 0.11843649 -0.11828055 0.31238192 -0.19429778 0.19589448 0.01702852 0.089049235 0.23451267 -0.26872453 -0.05617057 0.17483097 -0.10720181 -0.252567 -0.2399503 -0.14738332 0.2626819 0.03064799 -0.163285 -0.15538847 -0.21841012 -0.637133 0.1949158 -0.08081597 0.01236473 0.009250718
GGATTGGA 0.08528555 -0.063930504 -0.0725199 0.3235085 0.055591404 0.41350868 -0.09194177 0.0012773336 -0.31478217 -0.10320717 0.20579064 0.32890576 0.09207492 0.06572343 0.08798382 0.072903596 0.18748637 0.18735038 -0.28604907 0.26666978 -0.07419337 0.33346072 -0.18843116 -0.3809091 -0.32871053 0.2280153 -0.19852045 0.20985055 0.18141729 -0.29481122 -0.16112648 0.20322503 0.32300898 0.2442192 0.18626633 0.0026505254 0.32048532 0.15852411 -0.47940478 0.038490266 -0.28378615 0.075334914 0.22054712 -0.15181738 0.5612081 0.02697531 -0.16875435 -0.0061819986 -0.18647154 0.15284567 0.064256854 0.054404248 0.49806195 -0.034856282 0.06811948 0.30241987 0.57040566 0.123698935 -0.27405456 -0.26247483 0.21875496 -0.010903935 0.30271447 -0.10102871 0.2956953 -0.20575611 0.16402614 0.19971608 0.078048766 -0.43401667 0.39535072 0.101382986 -0.48054132 -0.112339854 -0.18163091 -0.1125318 -0.04690262 -0.037789214 -0.09702917 0.27413535 0.23050217 -0.23841028 0.22967413 0.29922497 0.13000025 0.25051403 0.30040026 -0.31854442 0.4880875 -0.17034619 0.21154024 -0.08158142 -0.016946208 0.19716327 0.3470517 0.05502143 -0.11952501 -0.055716194 -0.27579504 -0.27792034 -0.25174105 -0.30546063 -0.18594876 0.26184985 -0.23355654 0.14942591 -0.004266379 0.13429743 0.009753173 0.023581702 0.10919722 -0.16542684 -0.062248133 0.03235098 0.006323556 -0.22654973 -0.0020276227 0.14581686 -0.17773823 0.096360356 0.17796363 -0.43150175 0.11826334 -0.29165182 0.05969886 -0.08708458 0.08490355 -0.12819703
TGGATTGG 0.091753535 -0.119532 0.14156483 0.096721314 0.12878032 -0.003070972 0.0052235336 -0.15940738 0.0065583135 -0.19528186 0.28694218 0.20877463 0.20592731 0.053629793 0.3208837 0.17785256 -0.17856914 0.056447867 -0.061196264 -0.24664499 0.17257287 0.14892852 -0.39215082 0.11125156 -0.10830054 0.12813811 -0.15620078 0.1514609 0.45158422 -0.3527246 -0.17653295 0.03116289 0.5768392 -0.10899564 0.120397046 0.2989675 0.3049826 0.21119347 0.0538801 0.34111175 0.29720944 0.07184498 0.3813167 -0.28633562 0.2462781 0.08256657 -0.111039065 -0.03774999 0.185776 0.17752276 -0.12479943 0.099319115 0.6019265 0.0074553536 0.30063713 0.3010067 0.46449438 0.103501484 -0.48828262 -0.021826675 0.013588091 0.2873274 0.3014515 -0.0053459965 0.26183403 -0.03534187 0.2570974 0.1698954 0.13011575 -0.39382082 0.50514394 -0.16316009 -0.31516814 -0.1201331 -0.021460379 -0.08581616 0.16590844 -0.11215418 -0.28887632 0.14093114 -0.027825445 0.047110908 0.17959279 0.29154786 0.18489178 0.08705907 0.13048026 -0.27601972 0.5573797 0.017032024 0.050431438 -0.10340307 0.37515494 0.34654084 0.26432607 -0.14481942 -0.012611683 0.13750832 -0.23902808 -0.23872131 -0.28577924 -0.2053418 -0.36689395 0.030399945 0.017997958 0.11225165 -0.042076804 0.22443086 0.27262458 -0.024841547 0.26642954 -0.25719514 0.022436542 0.39104715 -0.29604578 -0.05345192 0.055521857 -0.026832297 0.09099689 0.09836713 -0.14500676 0.016731381 -0.2738524 -0.31750628 0.06364165 -0.118320815 -0.1927341 -0.073335916
GATTGGAT 0.24696356 -0.26501262 0.17521915 0.27403855 -0.015279335 0.01119324 -0.116216876 0.06025384 -0.14971045 0.14630766 0.13173951 0.24639584 0.4221924 -0.08543405 0.22424066 0.37494093 -0.1919542 0.4293218 0.13068125 -0.12401161 0.024259001 0.032777503 -0.054712445 0.102800526 -0.15171883 0.28441447 -0.19487946 0.20536005 0.37858206 -0.58784604 -0.119915545 0.047895182 0.26028347 0.40306643 0.010923863 -0.061704557 0.48651406 0.038450714 -0.21269198 -0.019836735 -0.22881936 0.2453655 0.35042146 -0.1730095 0.12974341 0.25182068 -0.14879255 0.0700093 0.076008804 0.3839103 0.07810442 -0.24120887 0.6517493 -0.06355623 0.16426206 0.011948622 0.4374391 0.14978307 -0.08701215 0.05759048 0.078141384 0.25350946 0.023084516 0.28072026 0.13272089 -0.103733554 -0.006762809 0.16131608 0.26441723 -0.23312098 0.3136237 0.03872327 -0.25573012 -0.43726513 0.12793258 0.13855658 -0.062947564 -0.1301042 -0.21716861 0.3640121 0.2355447 -0.1798237 0.24483106 0.63444674 -0.13763863 0.2568199 0.26832733 -0.29856142 0.31946397 0.056679484 0.05322619 -0.3169098 0.41801795 0.22133826 0.010622389 -0.10784015 -0.21199872 -0.05864692 -0.07110189 -0.29640856 -0.083255425 0.01442139 0.074899554 0.20806555 -0.16434807 0.1875769 0.076621614 0.4040444 0.1324731 0.15770343 0.16669437 -0.51156217 0.11089833 -0.06925321 -0.14834811 -0.29343456 -0.10385387 -0.06479783 0.16054447 -0.050348416 -0.16689646 -0.2972729 0.108324595 -0.22068234 0.05980315 0.016482797 -0.18317278 -0.2543609
ATGGATTG 0.10681912 -0.08437876 -0.032660745 0.00793371 -0.02373958 -0.11677483 0.4011729 0.008046138 -0.32595673 -0.082624115 0.2779187 0.20663857 0.44160917 0.09273247 0.0630269 0.27031988 -0.21189557 0.154424 -0.346253 -0.23216745 0.21971288 0.19566832 -0.28910625 -0.28105685 -0.16330814 0.26097775 -0.20017096 -0.03685736 0.54524803 -0.41513315 -0.18676966 -0.13155177 0.30934083 0.61813265 -0.04804073 0.12861969 0.30282512 0.052440897 -0.4133024 0.120954074 -0.18034495 0.26676726 0.30783844 -0.17142667 0.30741796 0.022798909 -0.23179741 -0.09511722 0.06423706 0.21679305 -0.06005452 -0.25456008 0.5131542 0.058669414 0.20875439 0.23007101 0.3349921 0.02013932 -0.19315563 0.063369036 0.22224584 -0.02734879 0.0588685 0.024373207 -0.09318472 -0.1829633 0.19379798 0.254183 -0.07462765 -0.12212027 0.09302599 0.06342487 -0.31145155 0.047694873 0.060889456 -0.26525742 -0.090880536 0.018826274 -0.35821488 0.2532946 0.15971062 -0.299829 0.17956147 0.612357 0.20977691 0.52605087 0.048542034 -0.2476778 0.17700264 0.10816255 0.22324707 0.13980243 0.38581657 0.24337265 0.2366917 -0.052735407 -0.14084391 0.0983268 -0.4129228 -0.061043754 -0.5159869 -0.14867516 -0.10342555 0.0645488 0.04874761 0.12859365 -0.14951201 0.20632388 -0.19992198 -0.17930242 0.26802167 0.042220753 -0.028887635 0.12984903 -0.0020522184 -0.2839111 0.14001058 -0.10110625 0.16656572 -0.023267733 -0.21658318 -0.029734882 -0.19202997 -0.24294107 0.3202621 -0.06829928 0.29116774 0.17217505
CATGGATT 0.35638148 -0.022087058 -0.11567787 0.25388917 0.09930687 -0.0914633 0.055143192 0.032748025 -0.18409786 0.1357434 0.52357316 0.28474802 0.06577671 -0.060738895 0.21782914 0.21102855 0.15176426 0.3290688 -0.3358926 -0.5264554 -0.13172667 0.203535 -0.07878439 -0.26128054 -0.31756076 0.048260126 -0.035851832 0.095882356 0.27595198 -0.229043 0.03390292 0.035829917 0.42044213 0.14114124 -0.19901612 0.21720831 0.28693798 0.19710286 -0.13165468 0.023604482 0.0059795068 0.31292406 0.2617656 -0.19285855 0.026898667 -0.3832864 -0.24633045 0.047463376 -0.036478337 0.034891702 0.10118894 0.067584276 0.5421891 0.22723207 -0.04418697 0.1024061 0.3964332 0.21537462 -0.1518594 -0.25650308 0.025723932 0.2714829 0.13365543 0.41017866 0.41211486 -0.12454853 0.12610506 0.08024724 0.13354479 -0.19582954 0.486302 0.05044969 -0.39878294 -0.3206296 0.29164213 -0.39072755 -0.0744979 0.10579474 -0.21468483 0.3472475 0.06988674 -0.39399981 0.1856952 0.4419147 0.037775148 0.35367915 0.21872577 -0.3808173 0.3663608 0.050068423 -0.10147744 0.08218054 0.235686 0.12213914 0.38530284 -0.050421294 0.09796772 -0.19661637 0.2718768 -0.33148548 -0.09197989 -0.22536314 -0.26139173 0.2313444 -0.25907475 0.02432569 0.093901776 0.1351438 -0.08932769 -0.029130133 0.319554 -0.17993572 -0.2035064 0.04102979 0.22457579 -0.16135809 0.17598416 -0.086861216 0.17290461 -0.14907378 -0.22617574 -0.117266655 -0.33522043 -0.2853932 0.055683713 0.033947174 -0.19093107 -0.11132635
GCATGGAT -0.039353687 -0.10447976 -0.1601023 0.44109213 -0.069596425 -0.14179352 -0.13135655 0.020651259 0.0040379153 -0.00460949 0.49216074 0.08262835 0.2003315 0.12225409 0.34339225 0.29447904 0.0027962066 0.04072931 -0.017174156 -0.48041356 0.013093024 0.091784395 -0.2957582 -0.26333705 -0.29057652 0.20808052 -0.23241337 0.10505387 0.34865668 -0.38190454 -0.21059644 -0.13470058 0.071445845 0.43211633 -0.0904657 0.084604196 0.5070364 0.43999285 0.06398537 -0.04867948 -0.29168433 0.4753725 0.14028354 -0.13398573 0.13353318 -0.22895166 -0.14403923 -0.03947897 -0.0093784565 0.17918925 -0.032927513 0.100936085 0.5633524 0.20966423 0.112498045 0.26649544 0.439805 0.16061544 -0.16261992 -0.04896837 0.2587351 0.26441735 0.14252837 -0.30344307 0.33146775 -0.2803775 0.06254083 0.14352898 0.16733654 -0.29599467 0.3607306 0.110103436 -0.45896995 -0.04741002 -0.052238397 -0.16525185 0.0038075144 -0.05416869 -0.09658829 0.08502108 0.07102577 -0.3112578 -0.0029523447 0.22728862 0.042641643 0.025241407 0.22231053 -0.27958974 -0.034966845 -0.2292924 0.253815 -0.08965965 0.21560697 -0.042458184 -0.09145698 -0.2673356 0.117850356 -0.19552398 -0.4223751 -0.22810036 -0.43903425 -0.18973592 0.0892039 0.08597642 0.011587812 -0.03823725 -0.20140004 0.11303902 0.24307203 -0.0054710517 0.39340425 -0.22192714 -0.3065077 0.28787714 -0.04710375 -0.07788779 0.016545735 -0.15619448 -0.10545876 -0.041778065 -0.36852846 -0.3289546 0.04778333 -0.37717903 0.24844465 -0.09599658 -0.081816055 -0.22929212
GGCATGGA -0.002597083 0.05431092 0.00082653627 0.3777171 0.18538122 -0.06309099 -0.04475453 0.10002233 -0.18425412 0.094367445 0.4407606 0.26936355 0.39127746 0.07941951 -0.03732803 0.053327512 0.046951212 0.051721692 -0.16852525 -0.30704793 0.2740691 -0.07952981 -0.14063293 -0.03977236 0.033550736 -0.061098266 0.03222097 0.12177061 0.3941067 -0.41866043 -0.1513875 -0.07585709 0.23719515 0.12527013 -0.2984632 0.2363153 0.11966023 -0.17039084 -0.30376202 0.111865416 -0.16825698 0.34384254 0.2428942 -0.14361808 -0.16788098 -0.08415591 -0.3562202 0.1904448 -0.1341464 0.41799378 -0.0030406346 0.18979488 0.5975955 0.15566117 -0.033047587 -0.09767946 0.3066075 0.11405197 -0.29916552 -0.074325144 0.13462229 0.034035053 0.23020531 -0.12844999 0.2120986 -0.46027228 0.25732985 0.5012124 -0.13674577 0.03576792 0.5231474 -0.2148064 -0.6651792 -0.2564639 -0.07386314 -0.16556528 0.073345214 -0.2904808 0.12110892 0.43909043 0.011036719 -0.19484209 0.1878223 0.35642466 -0.04848122 0.25422928 0.32886395 -0.47365057 0.37967148 0.14914635 -0.04161939 0.15444377 0.31885144 -0.012462008 0.40033484 -0.09094524 -0.17161559 -0.28222263 -0.31262732 -0.2298451 -0.3485184 -0.093154654 -0.35808742 -0.12798941 -0.006260813 0.18954866 0.17999057 0.05457835 0.23665 0.1692799 0.32026836 -0.032861028 0.010349964 0.24552141 -0.2073676 -0.24408484 -0.07544454 -0.001985373 0.06521507 -0.262858 -0.058825247 -0.36304206 0.05677924 -0.431068 0.29866883 -0.16724913 -0.09877593 -0.21095027
GGGCATGG 0.08650274 -0.083005704 -0.0873984 0.16274476 -0.0698938 -0.100257196 0.1704829 -0.008144839 -0.1136397 -0.10274811 0.384529 0.26694617 -0.12096971 -0.03083009 0.38970253 0.35020807 0.19054976 0.328368 -0.43440333 -0.24709082 0.45029077 0.3462809 -0.29386184 0.09186067 -0.28731588 0.13735531 -0.34562117 -0.035810538 0.0961571 -0.26035628 -0.11263387 0.18576686 0.17196804 0.27381173 -0.10796875 0.23075134 0.37879688 -0.02310908 0.09958945 -0.04303647 -0.10544597 0.3168435 0.02134378 -0.048107877 0.19235991 -0.09278928 -0.12895548 0.1809058 -0.09525026 0.14132412 -0.2985714 0.23090927 0.5119937 0.13992727 0.20485887 0.11256361 0.36174405 0.49790913 -0.44331044 0.01604834 0.018426592 0.08952934 0.16538857 0.02277899 0.48897427 -0.26991838 0.2337982 0.0658445 -0.052898146 -0.5643982 0.09265577 -0.19790086 -0.48959494 -0.171165 -0.073969446 -0.087526545 -0.08237671 -0.036199804 -0.16916578 0.528855 0.50322145 -0.16843854 0.056361966 0.30706072 -0.050973907 0.40400007 0.17925276 -0.36751384 0.3649174 0.4201179 0.3850615 0.08237141 0.2037579 -0.058267105 -0.050840713 -0.09900308 -0.0018441692 0.028009329 -0.27532363 -0.056396775 -0.082215145 -0.13181226 -0.25329298 0.13075702 -0.037602622 0.18577757 -0.14034326 0.17091988 0.1422039 -0.07090724 0.04514817 -0.06423663 0.069490746 0.1378694 -0.103371054 -0.36468542 -0.18195719 -0.03262692 0.09364506 -0.29135823 -0.27757743 -0.3058584 -0.011796121 -0.19288297 0.2945153 -0.07720977 -0.10538834 -0.016226595
GTGGGCAT 0.118722774 -0.068506554 0.4539369 0.2715663 0.0773786 0.054676753 0.27583584 -0.29239073 -0.18986383 0.19712698 0.6523685 0.0762894 -0.026367018 0.007899193 0.10097596 0.28105894 0.008623553 0.48181343 0.014404795 -0.35320756 0.26518503 0.36102098 -0.2845149 -0.24757741 -0.32527903 -0.10535864 -0.19773257 0.26501983 0.21522407 -0.31009373 -0.19012584 -0.18624058 0.24261084 0.3449291 -0.35700858 0.15978552 0.2026203 -0.04189064 -0.32268003 0.21548207 -0.20249918 0.20544481 -0.010073322 -0.0886334 -0.009048378 -0.022932913 0.03279727 -0.08362103 0.014055917 0.24352309 -0.26215908 0.1040429 0.42147124 -0.018742781 0.07314704 0.29913062 0.2576658 0.14696282 -0.37197298 -0.025913713 0.04231433 0.230783 -0.11678124 0.040244628 0.3734272 -0.37631437 0.5218227 0.25665507 -0.09929464 -0.42260924 0.2307671 -0.09856816 -0.51891667 0.08716075 -0.12635031 -0.14673893 0.112378106 -0.470164 -0.13697271 0.22886074 0.14831595 -0.31157988 0.09421723 0.35449028 0.04759346 0.3108036 0.2862022 -0.5981104 0.17449616 -0.05896969 0.10623657 -0.13029684 0.30092475 0.07641597 0.4130882 -0.3485974 -0.14043647 0.12834445 -0.25958335 0.026232608 -0.027030034 -0.2158017 -0.040660027 -0.057646636 -0.08582018 0.16996482 -0.05011768 -0.08550183 0.047849953 0.03230798 0.29873297 -0.32524192 -0.041832153 0.057309616 0.18789254 0.13110434 -0.032156017 -0.22242406 -0.25794354 0.006653336 -0.25576138 0.07012232 -0.07551341 -0.36051118 -0.0012857394 -0.049931567 0.07270527 -0.15584756
TGGGCATG -0.041159257 -0.30323556 0.25790226 0.13750517 0.08450286 0.015939536 -0.112175025 -0.07598006 -0.24671972 -0.007932059 0.16610926 0.12131116 -0.05643159 0.3012606 0.3532263 0.41815534 -0.11971263 0.37622774 -0.35361806 -0.11129576 0.06433428 0.2800951 -0.17574917 -0.3257288 -0.25269282 0.054676883 -0.1106762 0.35625577 0.38636288 -0.20266971 -0.20303018 0.15925665 0.2771707 0.2885777 0.12772478 0.11818934 0.2502514 0.04495738 -0.11912117 0.1513837 0.006360119 0.14764401 0.2910657 -0.058350664 -0.034315705 0.15178773 -0.26453277 0.066630535 0.0036800357 0.28671628 -0.17331247 0.34671363 0.29445502 0.1486867 -0.12284337 0.31514615 0.30076677 0.22753368 -0.09922732 -0.13671926 0.052999336 0.26115745 0.005930881 -0.011902718 0.59606767 -0.23443979 0.11806033 0.27648583 -0.051555295 -0.17538851 0.31184152 0.07908363 -0.37307474 -0.05664733 0.16167124 -0.07425059 -0.2454043 -0.13530739 -0.3361614 0.27851668 0.12249604 -0.15342008 -0.130783 0.36933956 0.04588049 0.5426338 0.08968068 -0.22868131 -0.068653286 0.18000054 0.18977274 0.1631821 0.46630335 0.06792248 -0.061754134 -0.28478688 -0.297302 -0.45583892 -0.13687618 -0.27238575 -0.6821227 -0.18549347 -0.14197163 0.04397422 0.08048513 0.42664728 0.118697315 -0.14115827 0.21563374 -0.0033168367 0.21204361 -0.20963581 -0.055403158 0.2210123 0.22767477 0.067511976 -0.084650554 -0.104022644 0.16126838 -0.030597733 -0.019718876 -0.023079287 -0.19451594 -0.21579489 -0.0797549 -0.49335584 -0.097589105 -0.26663372
GGTGGGCA 0.027672913 -0.47222605 0.12060243 0.25745964 0.16245963 0.0067530335 -0.19996734 -0.17303029 -0.036882505 0.11065797 0.36174956 0.297598 0.15201242 -0.08152903 0.15948012 0.20904605 0.0682229 0.25780532 -0.26547733 -0.17426617 0.39982203 0.34579292 -0.17069687 0.04782107 -0.49264666 0.21279173 -0.25498942 0.3423896 0.40963894 -0.12115529 -0.3645443 -0.036272135 0.2608257 0.2373623 -0.26458377 0.3303935 0.54627615 -0.19531111 -0.34151083 0.28826535 -0.13487715 0.25727695 0.2515373 0.15589273 -0.0422396 0.11234329 0.023573892 -0.004889817 0.20430784 -0.09281319 0.008252692 0.038612835 0.4661478 0.24308045 -0.031247202 0.040504668 0.41573906 0.045892175 -0.09215788 0.01486672 0.18174997 0.016938744 0.30550855 0.1237096 0.23955344 -0.40197024 -0.13318008 0.080536775 -0.19600835 -0.34216282 0.32548037 -0.40454793 -0.4925139 0.009338107 -0.08887631 -0.16790064 0.1848613 -0.033005435 -0.15672874 0.05978163 0.10930677 -0.43655097 -0.08422265 0.13672023 -0.0669638 0.512181 0.021619951 -0.2275572 0.08050864 -0.12918481 -0.12055183 0.3534081 0.2643083 -0.12575816 0.31141627 -0.28359243 0.30140543 -0.06366553 -0.12992994 -0.057177536 -0.20613696 0.114906475 -0.07533836 0.016624143 -0.18360162 0.080043904 -0.034236576 0.16166791 0.08856209 0.0673558 0.18681715 -0.089122236 -0.13256918 0.4645551 0.08610903 -0.24875948 -0.02611702 -0.1415206 -0.064807914 -0.15972388 -0.083684236 -0.29521352 -0.050710518 -0.3332493 0.057553086 -0.45702556 -0.04919853 -0.30561057
GGGTGGGC 0.064135894 -0.10296662 0.1301729 0.29804465 0.20633575 -0.18843971 -0.20974953 0.023011226 -0.12933093 0.096741416 0.4285647 0.233969 0.22649872 0.066015095 0.5504155 0.2152174 -0.3141668 0.24619731 -0.30727717 -0.22950412 0.15973298 0.45228246 -0.2640181 -0.3752388 -0.16927058 0.0045521087 -0.29336938 0.2473614 0.37046963 -0.17191087 0.0426135 0.19775435 0.20004697 0.29641473 -0.21513696 -0.08041612 0.10888396 -0.11893374 -0.080490395 0.33131 -0.3847026 0.39011768 0.030942034 -0.106237255 0.11924598 0.007934545 -0.077873446 0.023782298 -0.084330745 0.36124945 -0.026668359 0.1709367 0.11276217 0.032069694 -0.062425982 0.14541118 0.39588597 0.09343555 -0.23522858 -0.13147792 0.28702778 0.27588302 0.25904912 -0.2017004 0.250029 -0.19812839 0.54247147 0.4123048 0.2010749 -0.6732677 0.33774218 -0.2142618 -0.13931656 -0.02280896 -0.028406328 0.007841539 -0.060652062 -0.1785716 -0.31625602 0.004280599 0.20970637 -0.20286708 -0.016305085 0.3633778 -0.2591789 0.45529258 -0.011127473 -0.35255176 0.12312104 0.043840207 0.17204745 0.40486956 0.14924031 -0.39259154 0.41595635 -0.17052807 -0.005847169 -0.1909795 -0.18253557 -0.38332382 -0.20993736 0.108315416 -0.21249087 0.0024948975 -0.00441805 -0.05293692 0.030508462 0.08509951 0.28232265 0.40249667 0.21599224 0.13650355 -0.040332813 -0.0652987 -0.13761075 -0.23797859 0.048607197 -0.19000417 -0.1124034 -0.06819773 -0.29871184 0.042626433 -0.31436938 -0.18823029 0.118800044 -0.19197042 -0.09355427 -0.014249061
TGGGTGGG 0.178359 -0.48805755 0.15601763 0.45008904 0.15753777 -0.28745186 0.006413086 0.18791808 -0.17972101 0.011705386 0.5552731 0.15849738 0.18988864 0.093555324 -0.00992125 0.16796243 -0.023554767 0.38596278 -0.22737812 -0.1665775 0.14427881 0.18421559 -0.31957287 -0.04824996 -0.18379739 -0.065172724 -0.27549586 -0.0034492225 0.10307937 -0.021337599 -0.24510145 0.31748986 0.21775538 0.18923269 -0.21949066 0.261565 0.14574562 -0.143329 -0.267387 0.37906247 -0.052490365 0.3464227 0.07392496 0.059942465 -0.12851681 0.012214386 -0.24151015 0.3129191 0.025672901 0.26410484 -0.083247155 0.09763251 0.27381283 -0.034302007 -0.19342862 0.105756424 0.5235039 0.08363812 -0.23249073 0.14667824 -0.14497648 0.15432559 0.15122317 0.007041931 0.43856344 -0.11209204 0.44631943 0.33745596 -0.122704186 -0.14093289 0.35335144 -0.28629082 -0.28094473 -0.3901126 -0.18975045 -0.07018243 0.023935463 -0.2875163 -0.03257092 -0.23291332 0.22120042 -0.35881025 0.011780088 0.37802115 0.023653565 0.71494716 0.013164787 -0.45068356 0.24740453 -0.0317968 0.3898244 0.06934426 0.08298595 -0.07685052 0.062562875 -0.1812527 0.1344089 -0.2947663 -0.2102083 -0.082408905 -0.53951204 -0.03857992 -0.03345961 0.11986197 0.18260786 -0.087868206 -0.07887759 -0.21101992 0.16757686 -0.09965461 0.3064225 -0.34760514 -0.037963703 0.3839115 0.19780952 0.018920038 -0.1250312 -0.10027299 0.15963235 0.034211203 -0.2660472 -0.3247268 -0.092401326 -0.14748211 0.03577104 0.01884922 -0.20954734 0.09820654
CTGGGTGG 0.15830815 -0.11074383 0.17671384 0.34318838 0.3364037 0.0045761475 -0.07661331 -0.063706905 0.15420014 0.16313416 0.17545867 0.17770967 0.09585345 0.02627723 0.29220292 0.16785659 -0.012520877 0.34747535 -0.110058196 -0.3662534 0.21544486 0.38412955 -0.13438448 -0.20284517 -0.50150585 -0.18897203 -0.19979103 -0.021319073 0.34454313 -0.53113 -0.39081967 -0.011788827 0.37281233 0.34474322 0.025720827 0.22940542 0.3641894 -0.19810204 0.028505636 0.2173342 -0.15514609 0.24908338 0.11965179 0.06277844 -0.0110115595 -0.082804695 -0.26933342 0.2254496 -0.23636685 0.071052745 -0.029133633 0.404558 0.16895808 0.26426154 -0.046260692 0.213967 0.43823 0.08178169 -0.37457845 0.041005775 0.08779166 0.06031072 0.45100108 0.023747478 0.43358257 -0.2752721 0.6517716 0.076179 -0.271284 0.04774907 0.056179017 0.10302134 -0.5135531 -0.16939686 -0.097441465 -0.1194988 -0.15835568 -0.43004772 -0.24509035 -0.11674615 0.033961967 -0.5298997 0.07661858 0.24491753 -0.09661547 0.3394795 0.0714968 -0.50354135 -0.09709085 0.17255004 -0.12910838 0.45603767 0.037327237 -0.31355605 0.26718494 -0.12994532 -0.13496782 -0.25258648 -0.2734877 0.07719557 -0.10127661 -0.20776135 0.07090366 -0.12369305 0.043860313 0.028979896 0.042185247 0.14754707 0.094192415 -0.047921944 0.31654808 -0.3392703 0.19729294 0.19800252 -0.11588542 -0.026085513 -0.029077427 -0.07997865 0.02275934 -0.10422231 -0.074246 -0.013964297 -0.04798239 -0.048386827 -0.017618628 -0.18545403 0.048257682 -0.14982352
CCTGGGTG -0.05219697 -0.091641575 0.34913084 0.077372864 0.15613712 -0.29923868 0.10802555 -0.08794579 -0.047826782 0.25153306 0.7119569 0.23087268 -0.12724388 -0.17538665 0.08227266 0.07552286 0.24399374 0.23707622 -0.119102105 -0.27086297 -0.020512875 0.26647785 0.03215007 -0.40342736 -0.5447124 -0.17026785 -0.2755761 0.19933465 0.10266925 -0.021144154 -0.18815328 0.1607528 0.22706506 0.33911005 -0.14530092 0.08168033 0.51943547 0.05690251 -0.02536279 0.078204 -0.18565807 0.058997374 0.036563296 0.03447471 0.12028354 -0.27603674 -0.49125093 0.16747597 0.14439775 0.06788956 -0.20466988 -0.06061314 0.021599906 0.03976098 0.11054608 0.10014401 0.44772318 0.0786682 -0.22615534 0.15636909 0.09211969 0.26718402 0.063353024 -0.29805654 0.15642509 -0.26756826 0.342368 0.062325157 -0.14223728 -0.2012101 0.5164982 -0.14664054 -0.10025045 -0.38897055 -0.114224985 -0.028411012 -0.057150964 -0.2962834 -0.077364884 0.05919293 0.43766418 -0.12156756 0.0418146 0.29361662 -0.0910477 0.5355182 0.03522957 -0.37587768 -0.024291515 0.25797758 0.03235834 0.5221444 0.2363155 -0.3009254 0.5173683 -0.25173265 0.039820507 0.057505034 -0.29915184 -0.22372954 -0.26095113 0.06976162 -0.25579792 -0.11060657 0.13387166 0.30670437 -0.15771705 0.11143665 0.3563668 0.053235136 0.2883443 -0.24702153 -0.015093508 0.25452843 0.0944516 0.06407678 -0.22549911 0.041577086 0.106559806 0.06516805 -0.06327774 -0.06359326 0.047669798 -0.060253642 0.001133705 -0.49279347 -0.031160096 -0.21561298
GCCTGGGT 0.040247235 -0.20962773 0.13992287 -0.0053794184 0.14868632 0.17382659 -0.1659803 -0.049340647 -0.1561752 0.26707312 0.31794235 0.42692846 0.18341798 -0.23824413 0.03412858 0.17340264 0.13234201 0.3326957 0.038728602 -0.53666687 0.24534428 0.31150344 -0.1722638 -0.13961351 -0.36487788 0.047062837 -0.12722556 -0.22629184 0.16471736 0.12986709 -0.021426938 0.120769575 0.20813406 0.21618077 0.051891536 -0.044181537 0.43066013 -0.08647221 -0.31274408 0.14071928 -0.2752131 0.10017434 -0.18233587 0.23138 -0.2726683 0.030124655 0.04241873 -0.16590755 -0.085416995 0.1031736 -0.28366813 0.35576072 0.28348592 0.18421027 -0.10915983 0.23485765 0.23428167 0.104472086 -0.23299019 0.04991369 0.29632667 0.018502384 0.17364174 -0.13794202 0.26418525 -0.31867343 0.5082947 0.07085326 0.115354344 -0.5222641 -0.0010436056 -0.2893253 -0.33431283 -0.18918382 -0.34766367 -0.080332026 -0.22563447 -0.26513466 -0.39608386 -0.1564446 0.31698707 -0.07594778 0.084631935 0.5551355 -0.31632707 0.57072073 0.28234056 -0.47019643 -0.11005143 0.04358242 0.049048655 0.27867702 0.017430985 0.121746264 0.39899722 -0.20663424 0.0073504294 -0.29930472 -0.19456713 -0.20425943 -0.40017986 0.073223576 -0.16955528 -0.41144842 0.33318323 0.24582227 0.0397234 0.088775225 0.3584291 -0.24278554 0.46849918 -0.16694637 0.041542534 0.11498638 0.3058871 0.046315297 -0.03422284 -0.06883365 -0.003918062 -0.1902453 -0.21799545 -0.3850475 -0.23768811 -0.23654485 -0.051249344 -0.21566688 -0.2476879 0.045494296
GGCCTGGG 0.20811765 -0.5361733 0.41922942 0.16503325 0.09623364 -0.09442278 -0.18177448 -0.26078406 -0.031683657 0.5207336 0.60310113 0.49310163 -0.0010334114 -0.043865263 -0.06457805 0.124032475 0.06929448 0.38196272 -0.24602571 -0.31413138 0.24086574 0.34796718 -0.27095845 -0.31590703 -0.38231468 0.107233964 -0.13385054 0.12711865 0.058099646 0.09581922 -0.07678912 0.25386053 0.3190242 0.293866 -0.025066083 0.14838754 0.06920494 -0.46588546 -0.07811353 0.3243754 -0.2382198 0.22233948 -0.4613783 0.07703517 0.0745973 -0.10097143 -0.07850714 0.45830086 -0.04502352 0.11972772 0.08985547 0.20002827 0.1225044 0.4147221 0.15141737 0.19674943 0.17802413 0.11685134 -0.013240113 0.18445726 -0.08071299 0.18994777 0.1519257 -0.26647836 0.28632224 -0.3685803 0.3310522 0.2827609 0.047850057 -0.12047555 0.18452087 -0.19599792 -0.30830652 -0.06933878 -0.053205814 0.071902856 -0.002886768 -0.38089386 -0.3095992 0.21450341 -0.034256477 -0.44522673 -0.17247884 0.37774533 0.049602427 0.2147016 0.13230693 -0.34039867 -0.037433565 0.15411955 0.16961417 0.15656184 0.3301193 -0.38296977 0.3888878 -0.15893735 0.21005377 -0.069208294 -0.2370806 -0.2456906 -0.55124515 -0.18161449 0.23170705 -0.099626034 0.20344026 0.04170809 0.020652592 0.08991095 0.2364003 0.022091174 -0.101128384 -0.2881868 0.16752993 0.36147726 -0.07905787 0.17530024 0.17204888 0.13672641 -0.20564882 -0.06018563 -0.31913567 -0.26025286 -0.22177292 -0.15155415 -0.05349217 -0.2617469 -0.08827408 -0.13800167
CGGCCTGG 0.22205636 -0.28765336 0.07057248 0.161331 0.42024222 0.10705525 0.00304285 -0.21986425 -0.015776267 0.12264498 0.56142354 0.45626393 -0.03611522 -0.09508378 0.33765274 -0.040034227 -0.07219603 0.17099938 0.044363935 -0.23388276 0.1552976 0.112042785 -0.25840786 -0.07808635 -0.16130185 -0.10994699 -0.13047417 0.13285485 0.12608068 -0.026201019 -0.19801266 -0.026152192 0.07602636 0.2702664 0.15347107 -0.03231715 0.35532972 -0.48606575 -0.12654512 0.22266462 -0.17468584 0.19101514 0.014984301 0.07355421 0.14454283 -0.15149984 -0.13484056 0.15342751 0.10703298 0.21456881 0.3032782 0.11736854 -0.13893719 -0.034611806 -0.17325142 0.08899424 0.4076853 0.080479786 -0.20578709 -0.017600013 0.11498766 -0.13654172 0.11102001 -0.12470213 0.55023164 -0.53540057 0.3003091 0.46361628 -0.19642456 -0.15215755 -0.08348577 -0.60936743 -0.39296916 0.0045270855 -0.07347722 0.15312561 0.07521978 -0.43295088 -0.37744024 -0.14854693 0.24266864 -0.35287488 0.15121028 0.26139796 -0.20850709 0.39944637 0.3163101 -0.42175627 -0.17661299 0.1678258 0.19089893 -0.011680303 0.29337287 -0.6310503 0.39672488 -0.282521 0.17214441 -0.18490721 0.03783924 -0.41638762 -0.1028858 0.0834689 -0.19629835 0.13856848 0.17511413 0.20272657 -0.29133588 0.053066727 0.22552633 -0.31920615 0.343622 -0.14724988 0.10417008 0.3378634 0.04759112 0.14321272 -0.24364388 -0.23654088 0.161339 0.06246361 -0.1534899 -0.0584365 -0.2829177 -0.1823461 0.025605716 -0.16219957 0.0218327 -0.1778868
TCGGCCTG -0.13778758 -0.20369534 0.1442391 0.45564815 0.10946122 0.22953515 -0.12086789 -0.1746807 -0.18719003 0.48040703 0.32739806 0.30106702 0.21450919 -0.03953735 0.2659536 0.15801091 0.11972646 0.33468252 -0.12328615 -0.2653272 0.08503984 0.100053996 0.035022996 -0.171971 -0.37464067 0.079360425 -0.033873037 -0.028836126 0.25817704 -0.040670045 -0.33563778 0.06895222 -0.12213637 0.23601235 -0.23439506 0.022283763 0.10408024 -0.19187126 0.09880331 0.5846175 -0.101392806 0.023407213 -0.1836097 0.5449403 0.041496385 0.054533903 -0.25403973 0.2306413 0.124997504 0.13621138 -0.029690487 0.10932356 0.078706995 0.021854414 -0.20998424 -0.03111931 0.29682702 0.06421019 -0.19208713 0.19306797 -0.20951945 -0.050767086 -0.028303891 0.01635512 0.437667 -0.51293606 0.4463439 0.23728073 0.112263225 -0.5190013 0.16329423 -0.16532077 -0.34096298 -0.29344696 0.08350931 -0.2069973 0.2194056 -0.21322012 -0.36039507 0.11041842 0.33637214 -0.30300063 -0.18973951 0.17503318 -0.18878436 0.3341024 -0.13358589 -0.61315864 0.057662837 -0.21595223 0.15359752 0.39047405 0.055142708 -0.5148482 0.58370644 -0.44131443 -0.21189979 -0.11454511 -0.29498374 -0.13472956 -0.4001915 -0.037792917 -0.41625762 -0.100513786 0.18479975 0.031233223 -0.12568928 0.031196447 0.18310067 -0.09713968 0.30292425 -0.4402007 0.22376913 0.20718521 -0.12431189 0.35341328 -0.06621924 0.16499147 0.20313904 -0.08634244 -0.25402826 -0.0022712082 -0.11642124 0.157296 -0.04892895 -0.1902348 0.052439082 0.15359922
ATCGGCCT -0.06613171 -0.44270232 0.21169245 0.3075927 0.20093615 0.06932105 0.06956452 -0.1746839 -0.07101519 0.24582472 0.60159385 0.20126104 -0.089574404 -0.042831104 -0.08595061 0.28311658 -0.18541834 -0.06449597 -0.11919038 -0.20776892 -0.0196956 0.40661472 0.013060764 0.13163199 -0.45753846 0.091450006 -0.19358231 0.1743686 0.13667198 0.16321352 0.06094576 0.014729388 0.30803478 0.4096499 -0.31863663 0.17193075 0.26939026 -0.27874568 -0.27845886 0.4739512 -0.17872036 0.24849176 -0.11273578 0.14640664 0.27881697 0.15159264 -0.14297646 0.10395534 -0.2419928 0.29608396 -0.06742532 -0.038072765 0.102063596 0.20768225 -0.088129036 0.18105385 0.33259168 -0.065235145 -0.36403197 0.27333412 0.010862678 -0.07931313 0.30081886 -0.25109407 0.70825136 -0.25876012 0.4076969 0.08677905 -0.018462606 -0.17815284 0.48445547 -0.30121526 -0.27649742 -0.45093364 -0.22554946 -0.004585414 -0.1838752 -0.048065193 -0.35495812 0.24909537 0.015723525 -0.32832575 -0.098527625 0.16008464 0.10664664 0.30108058 -0.06746372 -0.32923982 -0.33730692 0.17912677 0.1449736 0.12112523 0.012969215 -0.53197634 0.6675836 -0.42103052 -0.05923898 -0.3667294 -0.16654293 -0.27363628 -0.045115042 -0.16895673 -0.049008843 -0.34534606 0.21555923 -0.2006549 -0.059934437 -0.0067149103 0.4669784 -0.20166367 0.36677438 -0.24403793 0.31558308 0.06940583 0.072817 0.2623421 -0.39693516 -0.22911492 0.017876765 -0.060456306 -0.2828817 -0.29986727 -0.41070756 0.25472513 -0.060068548 -0.17291865 0.11786014 -0.097761914
AATCGGCC 0.09399158 -0.093691155 0.11530825 0.28696314 0.35867655 0.013142313 0.07223976 -0.14337853 -0.050255112 0.25918058 0.4727191 0.37853956 -0.066137485 -0.1717355 -0.20528577 0.30988917 -0.24428338 0.2665149 -0.38521585 -0.13072494 0.12792525 -0.10328733 -0.005600871 -0.066570036 -0.20860824 0.07741514 -0.63251954 0.06526126 -0.05616897 0.17902985 -0.21378574 0.12863694 0.26241818 0.14468142 -0.13303833 -0.09350345 0.0787219 -0.37591264 0.270212 0.1161827 0.013803968 0.05151245 -0.23695676 0.06553816 0.059537273 0.16238578 -0.13612786 -0.0142136505 -0.26756367 0.15316342 0.12797534 0.25468415 -0.007370053 0.18691516 -0.25158924 0.014912385 0.32672948 -0.059819385 -0.14322995 0.2726593 0.2065666 -0.012438696 0.066364296 -0.046273936 0.1723773 -0.40888944 0.4514715 0.31370613 -0.24552797 -0.49912494 0.11095119 -0.35950905 -0.08160594 -0.067359716 -0.025711894 -0.23425038 0.010785258 -0.25807998 -0.4332697 -0.23764691 0.2099067 -0.4351407 0.025049439 0.31759226 0.047618892 0.3881137 0.1413978 -0.3472029 0.13706525 0.19132665 -0.02964951 0.45062327 0.15259115 -0.6778298 0.5622339 -0.47307613 -0.06353208 -0.37336263 -0.41383326 -0.2795982 -0.26691106 -0.017242528 0.109586515 -0.06709939 0.1599671 -0.0492624 -0.4457746 0.15557374 0.2850411 -0.19131732 0.44112852 -0.6033937 0.0927272 0.0043241656 0.0837922 0.17702164 -0.22134995 -0.18680528 -0.109965466 -0.34160382 -0.0971173 -0.15560822 -0.046567086 0.006327293 -0.4880322 -0.30974272 -0.22489887 -0.1133973
CAATCGGC -0.18860696 -0.15258545 0.3219023 0.17127924 0.052860994 0.15084425 -0.009159722 0.1295207 0.037303284 0.23119506 0.7296224 0.3308848 0.044011276 -0.1560175 -0.13038547 -0.301588 -0.35135472 0.35894093 -0.08125311 -0.07550885 -0.16748248 0.23639503 -0.08448122 0.16464226 -0.477126 -0.060410824 -0.12069222 0.12921344 0.091605335 -0.16418056 -0.030994058 0.06715698 0.0536983 0.2737334 0.041563753 -0.15935035 0.4104947 -0.42653483 -0.1547824 0.19445372 0.13107201 0.15086843 -0.41212612 0.33420753 0.18202172 0.10071952 0.026252156 0.14966635 -0.096489675 0.19543345 0.20202263 -0.031945106 -0.27594757 0.2255367 -0.29586068 0.42576212 0.13201281 0.16902098 -0.1855946 0.21889727 0.045776475 0.010009724 0.34671506 -0.25708702 0.31053317 -0.39497426 0.45392588 0.35235792 -0.0024548904 -0.59168714 0.06392333 -0.2703041 -0.2701648 -0.54095083 0.16655813 -0.13388048 0.17949319 -0.36990124 -0.42386416 -0.17623676 0.01947664 -0.23433746 0.104120135 0.23696323 0.013366536 0.7545016 0.170037 -0.3966975 -0.066692695 0.14937739 0.03652927 0.29509872 0.131293 -0.24725902 0.33463767 -0.29910395 0.3522731 -0.10788458 -0.115840994 0.0004320146 -0.24714881 -0.13374384 -0.20663263 -0.18287124 0.16665566 0.07356379 0.20534864 0.15339775 0.26818728 -0.27097377 0.27560085 -0.40557757 0.02865301 -0.11439446 -0.16637182 0.07473655 -0.08752301 -0.12029187 -0.057224695 -0.23359932 -0.2335855 -0.057378422 -0.15410307 0.2137756 -0.084712036 -0.13859063 0.13492595 -0.20885643
CCAATCGG 0.03294276 -0.29143336 0.19181629 0.19799694 0.0953941 -0.2519139 0.10935255 0.06874914 -0.25781053 0.3020327 0.49034804 0.39700636 -0.045669455 -0.16279893 0.13456243 0.061182816 -0.1669131 0.15134232 -0.17903398 0.083807684 -0.11622449 0.22550677 -0.24751624 0.08410812 -0.2823792 0.01154313 0.036338493 0.1137452 0.14608942 -0.007826399 0.12190698 0.28496456 -0.031842142 0.27544746 -0.012550172 0.35155454 0.18292724 -0.2148754 0.24053763 0.33840805 -0.22543304 0.1472056 -0.24537817 0.19992949 -0.14792468 0.04343663 0.20669581 0.16184911 0.07440442 -0.019504635 0.18702318 0.08876662 0.0052447575 0.13774711 -0.06833187 -0.05680287 0.15652269 -0.08969574 -0.040590525 0.123847276 0.1393968 -0.22372185 0.54001284 -0.18005483 0.20220716 -0.15130354 0.5041388 0.2723893 0.20899549 -0.24942394 -0.030402552 -0.3802543 -0.11220142 -0.19906127 0.005047323 -0.09390804 0.013563461 -0.22513987 -0.30384636 -0.013683775 0.09072337 -0.2590459 0.1446065 0.5184531 0.03519193 0.31615752 0.115095116 -0.46762472 -0.03926449 0.1543564 0.14002526 0.12612984 0.118466556 -0.56604934 0.5976326 -0.21161619 -0.168731 -0.0775871 -0.16348343 -0.016844492 -0.43177894 -0.007532341 -0.22625898 -0.49585065 -0.022935143 0.16380058 -0.4384619 0.50451106 0.49782625 -0.4052401 0.43396884 -0.56806564 -0.060243886 0.25577223 -0.012773996 0.2209315 -0.11125296 -0.30321437 -0.36270353 0.23247407 0.017762644 -0.05198741 -0.10098617 0.16565557 -0.122082986 -0.22341824 0.09813694 -0.06204309
GCCAATCG 0.20099413 -0.15776491 0.17228101 -0.29765996 0.06622111 -0.042982604 -0.019709596 0.052854948 -0.08293952 0.72068036 0.43423134 0.12032168 -0.24806589 -0.11909541 -0.0026345209 -0.24491708 -0.23745118 0.10446709 -0.20618351 -0.21296342 0.111697465 -0.0355492 0.07502598 0.029653681 -0.4660671 0.3177197 -0.04764332 -0.12250512 0.023039106 -0.036939044 -0.22897966 0.019712694 0.35205153 0.48430717 -0.45163932 -0.013261984 0.31741592 -0.37893724 0.21437305 0.2763622 -0.052007206 0.00054961065 -0.04763784 0.010991705 0.25689107 0.06500056 -0.20999567 0.6048475 -0.30328533 0.04791193 0.13624352 0.08970397 0.046582125 0.13703275 -0.14405201 0.33532897 0.35067248 -0.077678695 -0.003152637 0.07182057 -0.047936447 -0.06793363 0.2782155 -0.1275645 0.37207684 -0.2865264 0.34520808 0.38451692 -0.03748777 -0.6243969 0.07173495 -0.41486934 -0.3235346 -0.1917242 -0.15151913 -0.20639126 -0.081392944 -0.22185941 -0.25637713 0.02876901 -0.021106776 0.021325843 -0.03971036 0.44384277 -0.06956527 0.22168534 0.2612164 -0.30135083 -0.19452333 -0.22379434 0.2989009 0.17574482 0.13928115 -0.4549698 0.5806073 -0.030124715 0.27332208 -0.09427845 -0.049486455 -0.3212294 -0.17771107 0.20192283 -0.053137854 -0.20975472 0.30494007 -0.021187566 -0.11969559 0.36659303 0.2105667 -0.38424927 0.4050638 -0.36052945 0.016629735 0.13176206 -0.09214587 0.4004618 -0.24913378 -0.13659672 0.025003552 -0.056585338 -0.101006225 -0.1136898 -0.10028286 0.29214185 -0.3211463 -0.010251367 -0.071368255 0.19310121
TGCCAATC -0.10355337 -0.22431548 0.13299118 0.16411135 0.31056812 -0.056458157 0.107377015 -0.25112084 -0.0005878836 0.4478489 0.34126136 0.5635754 -0.033590104 -0.1519799 -0.037266877 -0.09880569 -0.0087332865 -0.04482081 -0.0976846 0.1886625 -0.0088343825 -0.38303527 -0.1747743 0.16095467 -0.3337962 0.22134858 -0.28845918 -0.301337 -0.006011871 -0.05652029 -0.0166779 0.11121437 -0.10436805 0.19661094 -0.12861237 -0.037475087 0.19880334 -0.11957655 0.12010992 0.40710935 -0.04097329 0.2389148 -0.06991308 0.28028154 -0.012027328 -0.015303555 -0.22986196 0.15993577 -0.1089812 -0.044835858 0.15416165 -0.06425404 -0.24016897 0.09689086 -0.15790464 0.1606937 0.37457997 -0.28518263 -0.34897187 0.15390243 0.26996323 -0.22962646 0.23566678 -0.206753 0.42357892 -0.12955536 0.35095993 0.12794577 0.4490916 -0.3850803 0.13102119 -0.15176137 -0.3997513 -0.31960207 -0.010456216 -0.3344536 -0.20428225 0.03848681 -0.38419977 0.021328842 -0.16476986 -0.17231964 0.28056213 0.45753476 -0.011841918 0.3921471 0.37970027 -0.39845645 0.14334302 0.2812432 0.012332222 0.17629954 0.09516366 -0.42447734 0.63509816 -0.608189 0.44414902 0.032143377 -0.060960658 -0.090984285 -0.4151247 -0.17050311 0.061170854 -0.1134481 0.06530566 0.036159124 -0.060373172 -0.10013643 0.17797066 -0.30420363 0.0744539 -0.22304457 0.21339567 0.037001915 -0.11461376 0.19344273 0.115186356 -0.24035369 0.044442374 -0.04607245 -0.099322684 -0.19543594 -0.3558488 0.11515346 -0.5897115 -0.16199644 0.2587478 0.06839363
GTGCCAAT -0.08579296 -0.005051654 0.24351527 0.23237145 0.11833666 0.17921765 0.1294222 0.087729506 0.19455206 0.18570374 0.44549853 0.29468682 0.0025299566 -0.0064452826 0.0960892 -0.20384052 -0.015473344 0.05613236 -0.20852257 0.069199845 0.07228114 -0.071104884 0.12944512 0.044688508 -0.4195575 0.20084956 -0.2585736 -0.2992096 -0.035926536 0.35439798 -0.14254849 0.195506 0.22683777 0.36839387 -0.08210002 0.19636387 0.32673532 -0.2921189 -0.32498592 0.028084908 -0.19396198 0.45142817 -0.25155476 0.15206501 0.21925686 0.21767655 0.283287 0.19861744 -0.060472503 0.0069913897 0.24410571 0.21254142 -0.23673305 0.21918361 0.1534734 0.045083176 0.25698286 0.26525733 -0.18360528 -0.014933674 0.058724117 -0.10517473 0.044991 -0.1784573 0.44642642 -0.2313718 0.24952842 0.14291778 -0.08956161 -0.25471202 0.28227514 -0.41037473 -0.5249978 -0.34995002 0.36451823 -0.13536133 0.10046189 -0.15582094 -0.49479118 0.04867269 0.010639706 -0.09325861 -0.0491686 0.27789152 -0.04110394 0.3547121 0.068056315 -0.28935415 0.12560377 0.0063787736 0.043355953 0.23384322 0.33507064 -0.4201748 0.63333887 -0.1757016 0.122607835 -0.3364701 -0.22157057 -0.16832212 -0.3627065 0.19970845 0.016375221 -0.09249786 0.022406569 0.026145034 -0.27664405 0.28716412 0.5525762 -0.41514662 0.14316371 -0.44631967 -0.17453615 -0.14983673 -0.3231245 0.53920746 -0.03519897 0.13824783 -0.23330311 0.11547631 -0.0052480116 0.06988038 -0.3981847 0.14613317 -0.37041682 0.15963677 0.07508026 0.19286035
GGTGCCAA 0.010671676 0.20645952 0.21532263 0.04723316 0.2871033 0.036834132 0.18288614 0.010054045 0.16922565 0.34768322 0.50016993 0.50630325 0.021026015 -0.11330683 0.13111037 -0.14547163 -0.103596106 -0.026053796 -0.1318894 -0.196051 -0.16872382 0.009588684 -0.22930928 0.25897273 -0.39326674 0.102018 -0.05872707 -0.01753818 0.023029702 -0.14232068 -0.028435037 0.13956639 0.20248896 0.42806086 0.09724475 0.20402557 0.46282566 -0.30641225 0.008200248 0.35604465 -0.1699726 0.32393235 -0.20375423 0.2867205 0.08576714 -0.09157214 -0.01753607 0.01770346 -0.2260782 -0.03635595 0.022321356 0.1412374 0.05494441 0.06087222 -0.1473262 0.2039892 0.09551513 -0.06972538 0.12705828 0.059819527 0.016548825 -0.24281386 0.20779195 0.037019383 -0.08089901 -0.10229254 0.16638328 0.281858 0.024319544 -0.27065128 0.13784578 -0.528102 -0.3742025 -0.32798818 0.11468344 -0.08258287 -0.08283067 -0.021076035 -0.42718568 0.17360966 0.059355803 -0.06714538 0.26398894 0.23840131 -0.019238606 -0.014686188 0.037062556 -0.11803438 0.22453181 0.08559673 0.2634922 -0.062806316 0.41609406 -0.7702772 0.6671104 -0.1861628 -0.021720808 -0.28564638 -0.16509356 0.15070094 -0.50153995 0.012994551 -0.04647419 -0.1634115 0.47452354 0.08170297 0.085706696 -0.15793206 0.35983384 -0.3192328 -0.048817277 -0.33209106 0.23386234 -0.014826917 0.10362135 0.2403039 -0.051802587 -0.366267 0.0022712925 -0.2551255 -0.34064314 0.098820604 -0.15305915 0.5993241 -0.44573087 -0.1474574 -0.08439777 0.06414119
GGGTGCCA -0.1121174 -0.16681753 0.1705248 0.2842575 0.28486833 0.17000833 -0.117689654 0.19101752 -0.29797232 0.34477016 0.55980873 0.56319225 -0.40253973 -0.18409635 0.11060589 -0.05772232 -0.42158324 0.121376514 0.026616743 -0.09897721 0.00761744 0.023061836 0.024798233 0.16067395 -0.46202868 0.07766511 -0.21982604 -0.05519364 0.18906361 -0.0048188744 0.19998774 -0.09766689 -0.0011544285 0.4999307 -0.2822077 0.36584795 0.14842296 -0.2453827 0.0655528 0.06744121 0.045803983 0.46537602 -0.30764255 0.036285743 -0.043003444 0.0069049695 -0.09300271 0.45078242 0.14850241 -0.01687089 0.2887869 0.17644028 -0.5200798 0.10175065 -0.04410688 -0.062256534 -0.123595275 0.15031658 0.07968888 -0.1628992 -0.12498669 -0.098234035 0.0019885085 0.012340546 0.1310919 -0.21647584 0.35679832 0.21599084 0.024889145 -0.55311906 0.079776265 -0.31976184 -0.5277018 -0.27876833 0.065494895 -0.43835354 0.11749234 -0.14099987 -0.41746572 0.13060544 -0.021831492 0.07846949 0.007918601 0.159392 -0.06478328 0.028393636 0.2021879 -0.43623883 2.5293582e-05 0.37393117 -0.06546897 0.016014975 -0.14061746 -0.32798624 0.5197089 -0.38219196 0.18686604 -0.26938534 -0.20276155 -0.14681287 -0.33200237 0.005402283 0.08416247 -0.092218496 0.19488981 -0.06548378 -0.24582852 0.011964311 0.21167275 -0.42719656 0.2952566 -0.23756428 -0.06362444 -0.12204131 -0.27031457 0.33616787 -0.12446497 -0.48704436 0.023206 0.08915145 -0.12809102 -0.25380802 -0.062482353 0.33703023 -0.42718142 -0.348191 -0.10125134 0.19788013
CGGGTGCC -0.25538605 -0.31030396 0.20103769 0.27554747 -0.05431421 -0.032788463 0.0015151912 0.1287911 0.16968963 0.12722273 0.446053 0.44234362 0.05801847 -0.14718704 0.06577618 -0.32050604 -0.13833809 0.1031595 -0.059986252 0.1884429 -0.043043975 0.019671991 -0.12250602 0.041507587 -0.23423195 0.1261205 -0.23468451 -0.09346859 -0.016835053 -0.054207865 0.03809912 0.3304023 -0.21075337 0.2058256 -0.15398364 0.15040196 0.3974657 -0.05630905 0.13830833 -0.14953777 -0.07631063 0.39144424 -0.39531833 0.16605812 0.12505555 -0.047360938 0.1282329 0.21891415 -0.102459036 0.24424058 0.050398298 0.03699684 -0.17377506 0.4113007 0.057296876 0.1846122 -0.037587628 -0.19222781 0.111681856 0.07173219 0.092394054 0.0024403243 0.060999744 0.24825448 0.64882624 -0.23759702 0.17235029 0.2127587 -0.26547316 -0.36945218 0.077134944 -0.48274353 -0.44803494 -0.06975968 0.08193116 -0.45728976 -0.15640412 -0.21709609 -0.34676805 0.097674675 -0.17116769 -0.04596474 0.10895273 0.3602822 0.1722931 0.22706296 0.37873563 -0.1040241 0.0801738 -0.08991424 0.31194928 0.1107114 0.14104913 -0.67008793 0.4242314 -0.37040058 0.19578712 -0.24889824 -0.10717977 0.12194394 -0.08662805 0.22588708 -0.19586618 -0.29479304 0.25281245 0.17049955 -0.13013577 -0.02026351 0.32635158 -0.20133752 0.5142782 -0.32389137 0.090241775 0.3254543 -0.4196906 0.39095458 -0.25807396 -0.29191557 0.08799018 -0.2640712 0.1253055 -0.04280542 -0.2887135 0.53331935 -0.6284468 -0.20324159 -0.059192277 0.21887694
