4 128
GAC -0.03426299 0.011099085 0.15904325 0.104000896 -0.11724698 -0.19951755 0.08970918 0.12869264 -0.052110933 0.011374315 0.2432939 0.057459567 0.004261743 0.012654115 -0.11889492 -0.04037458 -0.012836944 0.07757544 -0.12412652 -0.11001873 0.16164441 0.12650649 0.13048878 -0.03698585 0.056495484 -0.007059484 -0.08968451 0.1537482 -0.084914625 -0.017049635 -0.14833243 -0.018395174 0.076261066 -0.03412371 -0.038025305 -0.065243825 0.16118771 -0.10859505 0.12797725 -0.015763197 -0.06714298 0.10972431 -0.09516247 -0.10033524 -0.051933892 0.07551376 -0.056690384 0.08331081 0.041674975 0.023864152 -0.0046832534 0.01931034 -0.10457583 0.027391734 0.16489437 -0.06800208 0.08889147 -0.1622378 -0.07242879 0.10266067 0.069345705 -0.088893585 -0.053263836 -0.07687557 0.031045888 -0.07102405 0.0332281 0.14662443 0.024960505 -0.0056721717 0.022478435 0.09839939 -0.07012732 -0.14852902 0.00757367 -0.056395493 0.1415251 -0.011044586 -0.024368864 -0.05291889 -0.04806819 0.04413322 0.06443169 0.16017175 -0.027321199 0.10404015 0.10861549 -0.06934337 0.0019139993 0.1759215 -0.0025122797 0.004890777 -0.027584212 0.018644081 0.15746701 -0.050035957 -0.14532106 -0.19899535 0.057907294 0.09221057 -0.18076871 0.053473722 0.16925932 0.02072469 -0.011560773 -0.10156902 0.008778887 0.030301588 0.011947482 -0.10293104 0.017294643 -0.1271394 -0.072631836 0.09105254 0.061759423 0.13373293 0.04826738 0.16993918 -0.051179115 -0.09915073 -0.076764405 -0.04408601 0.11722835 -0.10529406 -0.02110143 -0.032358266 -0.13087149 0.012616032
CGA -0.033553142 0.01049377 0.14274077 0.08553257 -0.10022023 -0.1852681 0.0898591 0.11740829 -0.047940213 0.023603 0.2305222 0.06311419 0.0035723674 0.010963558 -0.10840073 -0.031389464 -0.01007575 0.07639615 -0.10867242 -0.09033109 0.15339556 0.11711099 0.11840177 -0.0396575 0.050579403 -0.011273018 -0.08830368 0.14213923 -0.06755201 -0.01552904 -0.1363983 -0.017853271 0.06968138 -0.027498838 -0.041486617 -0.056809694 0.15579334 -0.097620174 0.12862283 -0.012388577 -0.048713062 0.10353533 -0.07955654 -0.10273392 -0.051099528 0.0816082 -0.050885987 0.06753825 0.036501687 0.014768806 0.0029970098 0.020841943 -0.09486667 0.020281652 0.16027044 -0.06098676 0.08443042 -0.15328366 -0.057190005 0.082894064 0.07314995 -0.08885315 -0.054524448 -0.06325375 0.03163146 -0.072662346 0.037518565 0.14377503 0.017673884 -0.004793414 0.018973624 0.09534688 -0.061830003 -0.1317173 0.0022323595 -0.056086116 0.12666908 -0.0068718987 -0.020704634 -0.03694445 -0.04079652 0.038552295 0.046041474 0.15223765 -0.014505337 0.100186825 0.109360054 -0.069444224 0.012613963 0.16911285 -0.005651302 -0.0013300853 -0.03347428 0.0114188455 0.1437919 -0.052202456 -0.13538392 -0.19369437 0.052891597 0.08700839 -0.1669247 0.06005678 0.16330713 0.008982944 -0.016525803 -0.08913918 0.009224595 0.024689995 0.015173463 -0.09659652 0.01613545 -0.108182326 -0.07175411 0.074407175 0.060906664 0.12236799 0.04476318 0.16705938 -0.047456905 -0.097080596 -0.07869473 -0.033825576 0.10172222 -0.0947901 -0.030157274 -0.02965766 -0.12128551 0.009283682
ACT -0.03725146 -0.0066211517 0.12454027 0.081060335 -0.08837617 -0.19345465 0.09890378 0.115105025 -0.06893185 0.039924912 0.24496284 0.06866646 -0.012885025 0.02265612 -0.09227518 -0.02244069 -0.0036822846 0.075302646 -0.12301083 -0.06864505 0.17468317 0.12693949 0.104628496 -0.03106164 0.048797406 -0.027391685 -0.110539906 0.13659292 -0.075088 -0.031199716 -0.14788127 -0.043350946 0.090946056 -0.023748783 -0.0438516 -0.04285114 0.17324303 -0.11591471 0.14714696 0.012279086 -0.040154245 0.099220894 -0.054977108 -0.107672654 -0.08061666 0.09903797 -0.043968234 0.06722163 0.05209845 -0.0019705805 0.0137093775 0.034184247 -0.07471008 0.002128565 0.17577682 -0.043072373 0.092844546 -0.16933738 -0.043412443 0.08926327 0.09653068 -0.10276776 -0.07081605 -0.043949645 0.03749551 -0.077204905 0.06469661 0.16488369 -0.001481122 -0.00088434445 0.038017288 0.09315381 -0.06338538 -0.13643607 0.007062004 -0.068469636 0.105097495 -0.021420894 -0.00619186 -0.015348359 -0.014877659 0.01828528 0.033013426 0.18130426 -0.015115167 0.11704944 0.11223155 -0.06559457 0.024377674 0.16804132 0.009174019 0.0018386795 -0.037880555 0.015664825 0.15876958 -0.05342988 -0.16628502 -0.21502192 0.03372132 0.07857268 -0.15899712 0.072004706 0.17578034 0.004423539 -0.018764583 -0.076946214 0.035567775 0.01814183 0.029962903 -0.11346357 0.015057055 -0.091491185 -0.06674922 0.051669344 0.0743835 0.10759364 0.030683761 0.18547234 -0.053146623 -0.11202231 -0.09466353 -0.01637585 0.08765816 -0.08209341 -0.043283183 -0.014950938 -0.1057715 0.017010812
ACG -0.035900444 0.002290531 0.14377202 0.0878371 -0.097235754 -0.19510512 0.08532025 0.11458154 -0.055134874 0.026706036 0.24270481 0.064312845 0.0036564223 0.0077391537 -0.1046849 -0.033255074 -0.014172127 0.07579508 -0.117604315 -0.08295595 0.16094981 0.12336059 0.11246355 -0.034274593 0.045184758 -0.01001473 -0.09987206 0.14168172 -0.07581897 -0.018584779 -0.14200649 -0.029887626 0.07233681 -0.02030166 -0.036306035 -0.055142846 0.1589608 -0.10905348 0.13931099 0.0046725827 -0.04663093 0.10045326 -0.06840003 -0.09741204 -0.06774023 0.08655022 -0.041074768 0.06747717 0.041480575 -4.5870518e-05 0.0144706825 0.019087821 -0.08773241 0.01651868 0.15996069 -0.051693723 0.08650585 -0.16053689 -0.059346013 0.09032163 0.08483504 -0.097472355 -0.055520914 -0.05446617 0.037237246 -0.07912029 0.0495917 0.15155394 0.019661779 -0.007409344 0.023542203 0.08580207 -0.06951113 -0.13807881 0.0026811797 -0.06489585 0.120586805 -0.017027518 -0.012991384 -0.027689915 -0.034077767 0.029866215 0.049093135 0.16669172 -0.01798597 0.11176862 0.102882124 -0.061292674 0.0138418395 0.16795415 0.0020453474 0.00579224 -0.036582734 0.020288292 0.15206678 -0.06021566 -0.14977323 -0.2034761 0.047840424 0.07963299 -0.16654877 0.055640355 0.17135634 0.008663553 -0.025559802 -0.08709181 0.020698853 0.017507533 0.024700824 -0.10381441 0.017789656 -0.10695081 -0.06289703 0.06901888 0.06480705 0.11717363 0.03106716 0.17151025 -0.049016327 -0.108402885 -0.09098962 -0.028196285 0.09834531 -0.084809825 -0.04012098 -0.030254818 -0.11773139 0.009478469
