4 128
GAC -0.0419403 -0.024333222 0.118871205 0.05882272 -0.053683534 -0.19892932 0.065245084 0.08052546 -0.06659881 0.05937701 0.25651574 0.07906965 0.007940032 -0.012105705 -0.07305331 -0.023971906 -0.027750246 0.076183476 -0.12085975 -0.027188659 0.1738771 0.13128416 0.076815106 -0.024854723 0.015404787 -0.00789793 -0.13837466 0.1264066 -0.072613105 -0.021746876 -0.14235358 -0.06633222 0.061608564 0.01885626 -0.023569066 -0.039710127 0.15755004 -0.12596144 0.17837599 0.066435695 -0.006151623 0.08073641 -0.0067912377 -0.08230981 -0.118334346 0.112427376 0.0042014485 0.036997017 0.045874577 -0.067706496 0.07018631 0.01097327 -0.055766918 -0.003173971 0.15369438 -0.013490751 0.086533576 -0.17200892 -0.045742676 0.08050691 0.13188984 -0.12979482 -0.057942413 -0.0045068734 0.058356553 -0.10727655 0.09426464 0.16988176 0.021045338 -0.017555486 0.026037242 0.04564034 -0.08281472 -0.12880638 -0.008766937 -0.094304204 0.078561075 -0.041497134 0.017679749 0.031081801 -0.005151253 -0.0056565907 0.029353252 0.19602038 -0.0049246503 0.14286521 0.08008784 -0.03294998 0.035334636 0.1515656 0.018604437 0.018896362 -0.0587592 0.037644606 0.15059672 -0.094988726 -0.17454931 -0.22556975 0.027237466 0.045477815 -0.14324977 0.048199516 0.18855098 -0.015102611 -0.07088507 -0.060354315 0.055092182 -0.019027343 0.06263344 -0.11345271 0.022695854 -0.07210608 -0.030193165 0.024713645 0.07365765 0.082266465 -0.022684513 0.17844906 -0.04582814 -0.14394425 -0.13788368 0.0068991473 0.06106123 -0.031406544 -0.09304419 -0.034147542 -0.09329993 -8.13266e-06
CGA -0.046144895 -0.017736377 0.12383926 0.037771676 -0.039911553 -0.2045089 0.07220542 0.07638707 -0.054176763 0.080537714 0.26281878 0.09863789 0.019539751 -0.025349455 -0.0765416 -0.016969778 -0.03180526 0.08880842 -0.10273088 -0.010537215 0.17448053 0.13007489 0.07812284 -0.041072648 0.008657514 -0.00610233 -0.14413787 0.13115421 -0.046681687 -0.011483058 -0.13684474 -0.058302417 0.046516202 0.033860188 -0.033728477 -0.04209655 0.16916506 -0.11914796 0.20627847 0.07047344 0.023234794 0.09076694 0.005134929 -0.102923766 -0.123770095 0.13890257 0.012277962 0.014282771 0.034649994 -0.09043872 0.09485916 0.006522603 -0.063372985 -0.005102551 0.16810113 -0.0149983205 0.09096386 -0.18138546 -0.035531543 0.054401554 0.15302093 -0.14942992 -0.06158971 0.008504762 0.06801079 -0.13012776 0.1041489 0.18422912 0.024865165 -0.022644313 0.010853184 0.04864732 -0.08251378 -0.11770011 -0.024940351 -0.10485344 0.07872288 -0.032220624 0.019306226 0.055621427 -0.009236445 -0.0048570177 0.0076923473 0.20133193 0.020329725 0.15409838 0.094976366 -0.04141482 0.05713479 0.17256543 0.006545554 0.009103777 -0.08171167 0.029536422 0.14667794 -0.12168381 -0.16489603 -0.2403706 0.034891214 0.047687586 -0.1458782 0.060446605 0.20172201 -0.038277246 -0.09335189 -0.054229025 0.048480622 -0.030253652 0.07106041 -0.10944797 0.025400165 -0.05822648 -0.035863474 0.010923558 0.07591217 0.08368838 -0.02601749 0.19175823 -0.042556904 -0.15650752 -0.15692917 0.017251294 0.050094012 -0.023143088 -0.12023638 -0.04558936 -0.10114024 -0.01238903
ACT -0.045709472 -0.02683916 0.11317516 0.043915167 -0.040659316 -0.2042313 0.0745004 0.07761748 -0.069814004 0.08125367 0.2732597 0.095912576 0.00741053 -0.014345872 -0.0706801 -0.015929189 -0.027743375 0.08731777 -0.12023632 -0.008738969 0.1912383 0.14020386 0.07564164 -0.033145923 0.011964028 -0.015154707 -0.1575674 0.1330954 -0.06179463 -0.023287622 -0.15041625 -0.07464131 0.057820853 0.02664412 -0.029790476 -0.031522054 0.15994318 -0.11890792 0.18779047 0.07243111 0.015075965 0.07778679 0.010554069 -0.09022412 -0.12217798 0.12519655 0.010013294 0.020491423 0.04215336 -0.08039407 0.081466965 0.014265415 -0.046909742 -0.012122131 0.15641832 -0.0062211617 0.08540044 -0.169178 -0.028921671 0.060383018 0.14194056 -0.1351522 -0.06280712 0.01105523 0.06027248 -0.11151736 0.10201907 0.17120962 0.011628648 -0.016454952 0.023153735 0.044081934 -0.074365094 -0.111767225 -0.015090152 -0.09611768 0.062375333 -0.037362177 0.022482404 0.0510575 0.0041084373 -0.012642879 0.0071908217 0.19136593 0.010480562 0.14140494 0.083694905 -0.034479324 0.05000178 0.14916888 0.015477379 0.011547729 -0.06796115 0.029668935 0.13973303 -0.10041189 -0.17335634 -0.23431046 0.022641249 0.042288724 -0.13514559 0.060834765 0.19377661 -0.031691264 -0.08182698 -0.04824013 0.05917653 -0.027338102 0.070868924 -0.11292954 0.022643762 -0.052101318 -0.032096814 0.004769943 0.07841684 0.07410995 -0.028331647 0.18909557 -0.04458784 -0.15228352 -0.15097249 0.020868948 0.04555339 -0.020628314 -0.11206232 -0.033118784 -0.08826759 -0.0043437574
ACG -0.041818354 -0.024098558 0.11846059 0.050446667 -0.044612072 -0.19441445 0.054619674 0.070139006 -0.05905695 0.061825052 0.25046515 0.080601156 0.016986612 -0.023691872 -0.06980776 -0.024539376 -0.033181857 0.07265432 -0.10813724 -0.018050557 0.15831915 0.121723495 0.06775351 -0.024724055 0.0061667166 0.00040488533 -0.13270569 0.11742732 -0.06375136 -0.014308669 -0.12943214 -0.062229432 0.047501434 0.02926936 -0.018881364 -0.04064705 0.14760305 -0.120696805 0.18041912 0.07320309 0.0038167413 0.076674365 0.0015685806 -0.07616258 -0.119974695 0.11314312 0.015079984 0.026553443 0.039469637 -0.081643276 0.08320549 0.00240541 -0.054799255 -0.001350085 0.1446499 -0.0096638305 0.08242761 -0.16761877 -0.04667575 0.07270679 0.13603933 -0.13353115 -0.051336955 0.0029636812 0.0623932 -0.11444689 0.095904015 0.1659772 0.030008197 -0.022543114 0.017493835 0.03424937 -0.08586713 -0.12285341 -0.015170167 -0.0979906 0.074965015 -0.041928984 0.020653795 0.040601596 -0.007961133 -0.0075513655 0.027991759 0.1926599 0.0006349675 0.14568585 0.072680935 -0.026430475 0.038235195 0.14942427 0.01659923 0.021119704 -0.06538131 0.040943682 0.14452425 -0.10738951 -0.1663516 -0.22165856 0.029578751 0.038508162 -0.13848104 0.040923025 0.18729407 -0.021474734 -0.08424239 -0.056667585 0.053070415 -0.027694004 0.06752747 -0.10765556 0.024593089 -0.067390166 -0.022329573 0.020104354 0.06950608 0.077044725 -0.03271168 0.17066896 -0.04152428 -0.14683865 -0.14422685 0.010387626 0.054416765 -0.019831933 -0.10356238 -0.04194091 -0.091788046 -0.0069767297
